{"Config":{"Inputs":198,"Layout":[60,16],"Activation":1,"Mode":3,"Loss":2,"Bias":true},"Weights":[[[2.7251342695319525,-1.3226628015902748,-0.7213134535499215,-0.17410783226848792,-0.7240186475080479,0.2892092868219595,-1.0524196948391498,2.048352235536848,-0.8161969365728617,1.8831593652510175,1.738925597830229,0.42423564529910657,11.742729344374249,-2.6142024993552613,6.669759379644063,8.855586818963976,-1.277307854028456,-3.330671171157821,-0.3148684683494787,0.3394159048458264,-2.9317643542009555,4.243466672672215,-0.2739228388407159,-4.789634182142078,1.4878099298847167,-4.8908641741482635,-1.7918013738223373,3.0671305728118563,-2.936316079797831,-1.6024366419519058,-1.602682801138114,-0.329953123186199,-3.4776247296851994,-4.4495228819925705,1.7685524088955529,-4.2004324984569505,1.707030952317804,-0.8886857001525285,0.40601100617862984,-0.2657578525524432,2.4299258980281735,-17.40622922688296,0.5341108297208346,-5.71851042455494,-0.9727018085806952,1.841719128768115,-5.169640365823665,-6.247151895109328,3.4770755915985907,1.3881984863350354,-1.9796607730735427,-4.231559528007137,-0.3974366098836632,0.6507279996572913,-1.3941947477443002,-0.2731744344997483,-1.6434341118958158,0.3160115333879556,1.2428175971663595,-4.255459662580123,-4.656898342157086,-2.7476489631221375,3.580476231473561,-3.0510959518461043,1.4158853660942816,-7.042320808066563,-17.33655157678602,7.219452266275024,3.7577453788120287,8.414519885572707,0.729935041688481,0.603193782881577,-1.8721286326830922,-0.18034256174652596,-0.6519453261684425,-1.035645034228357,-0.17241193572856292,-2.6352469278213384,-4.616011020715019,1.046859106085491,-1.7494966376934362,0.5177783168035138,-5.2748663766469805,4.362999717318022,-4.948147238594342,4.347294060352292,1.0628761141729848,2.7195319095354336,0.3976098946287281,-0.03744066648098056,1.2516459759629677,1.7180983645184622,-1.4615062440587545,0.8022005450577949,-3.093184045448474,-8.08431375935457,-5.944321007928066,2.97904629034836,-0.86239501435636,1.9203470892610943,2.6107317943628647,-3.6252796293282676,-6.57515264655754,-0.36122394838705224,6.694379637421766,-0.17722805723800655,-1.0240676980149446,1.5398204980555639,-2.2599736200265976,-3.1604511219468208,-0.3153887624641885,-1.546611122341151,0.07145162438069307,0.3252920237256437,-1.5879212466626178,-2.7282521007950575,-1.1543381070384313,-3.411032086183414,-2.664476166188568,0.08963319137428634,2.8567929187937136,2.7608135669182094,3.886012091564827,1.425310384059512,1.0553772731047555,-0.4787686413596012,-1.535986479463144,-0.3866339986624326,1.5310153153888815,0.07917126781936433,-1.4501780850690322,-0.8620990510399646,-2.7441174331272196,-11.401008688401609,-6.572252502198069,0.4367149440808065,0.28374264334830285,-0.5938162521759689,-0.6513193775865797,1.9395795078641123,2.079072206725626,2.990837771100195,0.7094612097534986,-16.33413013603111,-0.022267212940440824,-1.4767759904123252,0.4028577619389878,0.5448658979589186,-3.741401206145626,2.5230857197246377,-2.8798997912732207,-8.829931419324947,1.2103211076638103,-2.7128476727231425,0.40895027552061824,-3.15236768374671,-1.7586411632888441,-0.4868842347668822,1.0575696498193163,-0.0855553205453407,0.5120388442700888,-4.5426492605169875,-0.7411729873178073,-5.028469445153947,-0.08017134383265136,1.7012109332937986,-3.08323264388716,0.5699589934250722,0.6395833553904829,-6.3115383528118905,2.5716700401050927,-0.8327834884140373,-1.1230578968023495,-2.5957686102414885,-5.279773637727316,-1.9922613123516575,-0.2680090670091164,-1.1060238762252614,-0.15551289678822938,-0.17152729977608527,-0.5317196063121924,0.27870525456216244,-0.5223454847002528,-0.6059779876425524,-1.0720960468141414,-0.5077877796307044,3.475270660481939,0.9919311949539643,2.7023964460467815,0.15858211756727336,1.2618183580002025,8.336442886767527,-15.442661471826492,-2.715647217538896,0.8467640465136783,-3.038984291365199,-0.7215786842373688,1.4133314849719398,-1.3270881910430758],[-2.2224867263221824,0.15873028431497654,-0.12510755206026708,1.4615071973275269,-9.88682311671007,-0.7518737620522742,0.30759717736164127,1.246857102960751,1.9555687233899335,-4.14083305018147,6.9443645189624785,-2.6415112694759424,0.340526748983606,0.35322723293696345,6.562255676999404,3.7266815415015278,2.242349959108744,2.1682594963062276,-0.5803135384152758,-0.47147703598652557,1.2242056519700146,0.4660839404204284,2.1821822593002524,-2.2480877336057006,-6.042490555426233,1.2102599564100784,-0.7573495502123131,-1.2567334702598494,1.49614150803665,-4.360438287239373,-5.294058277411559,1.7560927142182883,-1.1468882269368461,-4.427771299523799,0.1719095821940448,4.420841170302418,-0.35232395235822045,0.340689865297717,-0.5162172557955128,-0.45283070951657445,-5.85788899272474,8.736947351510073,-16.614309504151535,4.781520896889464,-2.807917064487496,-4.10348958108436,2.7694372848946944,-4.845113016754623,-6.46427330909595,-6.668617281159972,-2.3649510865132157,-5.617304986521144,-1.1706266733831325,5.384624299342788,0.2062217742959469,-1.0621175731138364,-5.753299486375394,-1.3273140808272343,-3.8838836939424404,-16.200253099908533,-5.610007623370242,1.4084793435166443,4.399718204175905,-3.9000194087004925,4.881137065980533,-4.317975191685829,2.593126080653835,6.068722476796816,-0.7341286956914296,-2.889927842494767,-4.402416895292805,-0.06573182635690243,0.9216913815198475,-1.0363857741278386,-0.37146410782666445,-1.9879559957305515,-0.6629345019962715,2.6828353726447824,-5.433322827520523,1.0096985484672458,2.141805987205306,-1.3820962871134561,0.038496871018558435,2.9574453082820527,-4.854474734893099,4.151646484300484,0.5159658871213268,1.5869658488843508,-1.0658355310112626,0.3718359979655764,0.1646260781077602,0.1297080736425419,-1.786674497552828,-0.3240421801867439,-0.031117177107394874,3.8630304014495276,-0.28451920207459996,-16.262679903447502,-2.104617998668379,-4.500253792968415,2.275633800675623,-2.842006530701341,3.9017201044126755,-1.6894354851575848,2.0182483474695103,-0.9412655738107015,-0.8246295295641735,0.9299943796610782,-1.6393633613286454,-2.6888241817168677,-0.06793352419669242,2.0579090758302865,-1.4404592658750495,-0.4693518395296482,2.114167780951171,-1.3177236726915285,-4.9777666286616045,-2.1426078785873406,6.219610667837789,-7.382764186794233,-0.40023764482390944,1.5559657490187624,5.042309847483388,-3.232155116494471,1.1632796613588898,-2.5673897520251874,-0.3106794014635821,-2.2968943688234313,-0.2494196316837063,-0.5078222466864973,3.430753739509151,0.00751584023390949,5.566025253788692,-3.9507411690970544,1.3538241553098957,-8.931537269699007,-3.8133817305561633,-2.522527152547353,-0.1969914245258472,2.2863249403676917,-0.44234810492437876,-1.6228083237905033,-0.6992700146710531,-6.658044402119463,-0.9726842223140295,-0.7102110971411741,-0.14245244602254864,-3.383772963713848,-4.784815364001529,1.721375000606108,-5.716415971539326,-5.852202311189938,0.6714180680936205,-1.16095345136163,2.988259598682122,-5.3013595541462815,-6.558053984965869,0.957708819228686,-4.147810474576638,2.084466356099598,-2.3819368257067266,0.37528283701407017,-0.10030175853812474,0.41243244274550706,0.25204205807291524,-0.4884315699492334,4.164675367714104,-6.401294805907152,-7.961357942284586,-4.187175759716842,-2.412158425658439,-4.18687470196501,0.6663646976538898,-2.437771646135506,3.0468476211842264,1.9149633274982045,0.2050334406983949,2.0416974184384746,-0.28059638783578356,0.8351987547083626,2.421697953253119,0.36414150748164653,-0.038723776607671394,-0.589218111141608,3.0787209458883305,-3.368985135915896,-3.0277350701487453,3.692615192809255,4.915353857482122,-0.2578925958983896,0.5049994559071038,-3.411173329218515,-1.1654939785445813,-3.2319171409158103,0.39945722851394083,-2.964857832625285,0.8276715995309885,1.9876071927477699,-2.387516349834498],[1.8327568465686777,-1.1449802768750954,-1.1872747893851,0.5159386062731552,-3.7421877909756156,1.0621925807430932,0.11059044057395805,-1.6366041895709182,-1.044410266424972,2.7840890649297143,3.8845236591300503,0.5111176436067966,4.015191608582203,-7.308358660929468,8.519751045550546,17.344248361725054,0.09117488058394384,8.746480391723853,0.19769850768565955,0.5003873651674526,7.915831417399906,5.260423963810014,0.6170481836993182,2.1405522169679765,3.7880632315255185,0.6964765231230928,6.58716201366079,-3.319794990504218,0.3027316841044435,-1.63843303448537,-3.0396592656064456,-0.27843686821776514,0.20005098437362867,-4.428023676146549,0.7867782637009357,-0.5056163361009823,0.27891175164504045,-1.4701916578146983,0.4686413723450227,0.13104074289500578,0.7810794786066594,0.8666172707133377,5.441874677162645,8.313036008879616,2.18610174508878,1.5542300496444328,-7.870410931959477,19.269568100050204,3.11253798098381,0.06615318199379473,-4.000452853503963,4.876375652196201,0.34497644725448384,-0.4978544832747437,-0.10830464299097782,-0.08212166420298474,-1.6980895707886128,0.8678361899157907,2.469091847387526,1.08757258715837,2.9530250792158115,3.995324547978079,-2.9524921014486805,-0.4088473857445671,1.7605698048471579,17.385066953327723,2.0442647143994663,-2.285761694757791,1.0213794435878552,0.9160009206809452,-1.1305688048599358,-0.14519106129883091,0.1229016790885104,-1.04936171902929,0.017139482529224363,1.4563398239829517,1.5045709891086574,1.6372639522344647,2.557236159930883,2.825708164251787,4.743534954661579,4.203060255310027,0.6479785689900017,0.03720946843913808,-0.26568069857378285,2.0738595496531778,4.091358488396863,0.5697301838787356,-0.7579798203378246,-1.6173246717947694,0.12516675197931737,-0.09675031201879915,-0.4067661776554563,-0.28855798560744583,-2.9795590028270333,3.9299246297088257,0.39811742000640316,-0.7204905311018087,7.6872629956399665,-3.0944897891623246,0.8894293042744742,3.812760795535301,2.9465470944689147,0.9473080533277147,0.6039098463329265,1.5369806250823603,-0.27422378105161505,1.447690260417151,0.578043926192109,-0.7970308000170415,-1.1913770940849004,1.1291349553367236,-0.11360045396119102,-0.6937977238919035,3.2032651616580345,3.579329765726285,-1.6554000977455006,-2.7713091703814716,0.9472069208753955,1.6524440765755526,-1.896730797574874,5.181565584834758,0.51809783077352,0.3214823513394697,-0.057162970627691684,-1.6073757374115663,1.0726103594906213,0.6864869725478888,-1.3729627887249871,-0.8843181569359808,5.415394293866388,-0.29833294216191864,6.901908606240896,0.7470907156778572,0.9277040813685399,0.792641995742764,4.116559946327411,0.09028726719265581,0.7460628585107807,5.725350007300303,-4.296489354409258,-2.1769841292812417,-0.8888499032488854,-2.89088643444306,0.048853219349648584,0.7753027854178876,0.7187144267610264,1.4885014973468538,1.1382218384535636,7.425594764240573,-2.271906226350626,3.5015048713763806,1.9049638553267483,4.173867328661993,0.47563007219186837,-5.286460409547236,3.136533419480531,0.3493360942186627,1.3942417909150029,0.7003787563251204,1.5142876562996819,2.7235260957446092,-0.21897554978136669,11.727448252037819,0.3001979687792343,1.2799887452966836,3.226940096370713,10.311360235617586,-2.1101069737105247,1.4520424883714367,-3.333738044260941,1.1041944582552052,-1.9891581967707246,3.5407414141434077,-3.3545679179525827,5.9061167197954605,0.6359435408556015,2.217394689040042,-1.1198731673621638,1.8215134795881787,-0.6105909234492093,-0.3254007844777548,-0.4836449697548214,-0.08651777988898281,2.4358638220152447,3.227149940774905,4.501386340551564,0.052985525182836786,0.8665123758141993,-0.5198231357987586,4.699413438408146,0.3112972878340696,-8.078397216577486,4.357594331808148,-0.6228458154350877,7.391958570458811,0.5713274058323523,-1.9559076463491507,-0.47256097005648867],[0.7278347325134531,0.6961238209688851,-0.1854967982937799,1.1238326701746055,1.660324939778667,0.5288332439276107,-0.25608160331936314,0.9724376649266347,0.6049339700269979,-3.888198724492158,4.703657856085354,-9.031772686982217,2.5932588423741576,-0.045018585594704584,-2.205312318631196,3.772546828077259,-1.145154185296932,-4.380086484912235,-0.17592021848392536,0.2089837890966048,-2.4759674372838374,2.9959125437896774,-0.6319700970182944,-5.205373515032203,2.918768915756799,0.8823860657032137,-3.5584212139104356,-1.1245637827432189,-0.09734442700704819,3.0404031060026178,-1.6374873134556764,0.00848945940503836,-6.026392057941776,1.6595717771301317,-1.5179901467811674,-10.18951037301015,-0.15469278380931512,0.682173123063349,0.5828880892845135,1.547965000726671,2.33463940287708,-7.749493174539059,-2.175274708189031,6.439418684017024,1.0619828009971706,-1.7320514463581864,5.072348781211639,4.89419726067411,4.43331160443467,0.41678535118086024,6.135059669651941,-0.025377299749089338,-0.33806307394829493,-2.4570293646158365,-1.968744828816738,0.43774392932662665,-2.5140244833060956,-1.6009903793112892,4.617727121194184,1.1859231577386895,2.4221575541586633,3.9404669187517642,0.5687692641260862,7.19832268583786,0.5746019817750259,8.305088557883929,3.7910935363624487,2.9498432088268993,-2.6658131452284026,-0.5647930092292514,3.1300945273792165,2.612953990797588,-0.040507833863755845,1.038571955063451,1.267403594226413,-0.03052334770794452,-0.37657487662929756,-0.41393435753034136,-2.647800595754985,1.0627012509768827,-3.8563416400147505,-2.2358039602205286,0.3556169898322093,2.985385194644128,4.220848466032587,-1.2900858198633036,6.3925337062853895,1.8708496670924442,0.0828213325045571,-0.9082013819366163,1.5358199694949488,-1.7532101669571245,0.40861639199284866,-0.1888360057530011,-1.9660369498610508,9.927835788970874,0.890999303028409,0.4659347965495068,3.124769614355731,-0.8758613413770339,2.8411981283022394,5.740899135604666,2.3561815189392545,3.848571627801525,4.241700220977676,1.6414963187299971,0.7245613881189072,1.2505413899870812,-1.6025446417840392,-0.17185275807429637,-0.5412431505686168,0.6755268034277667,0.6677414479609556,3.97324343484522,8.736021513480573,2.5192114335770928,-0.15882431783028414,4.604025951427327,-6.014421351222434,-2.1689678367482053,-1.3141849886014487,-2.4521939367580194,0.49009711310298665,-1.7117377018510063,6.307045716995268,3.9647554374977148,-1.3702890765392897,-1.096822505047664,-0.37423845246090853,-1.3987451798233659,-0.04336761998748583,-0.15217739558066645,0.5735873710302994,1.647508309824406,0.33988576324162223,1.0565725961639643,-4.829153791373059,-0.36997187767279016,-3.238378797345076,6.310860069302662,2.687563989981128,2.043808537229586,0.020187399601347737,-4.324070567359502,1.4135396058924956,-1.2252219983618218,-0.08598071997693614,-1.8224364159737618,6.072392188896726,1.9864042469343555,-3.1788609936504724,-2.0425195235386124,-0.925348834831499,3.386120970367805,2.66963506682777,-2.0410559839332927,-0.4949713885317683,4.125634252234792,6.28581895059621,3.692761674686376,-0.43109088595516176,-4.140635817132813,-0.7465668826364282,3.359929072541939,0.6758814879469415,0.14349648588150185,1.172169089684394,8.262746707252555,0.2856314398160323,1.6863534321858777,-3.786447057486891,0.3283786729797121,2.2605970909728694,-0.5698248441511803,-0.2950052035588754,-2.6739521392820396,0.3549319840456103,-4.038158677384879,-1.1570201108951934,0.9235780432242846,0.5216318855306576,0.20810198452801243,-0.8433765375954378,0.3029839348599258,1.217651332916218,0.42379699071229526,8.176511278192422,5.671840317218557,-0.5826605296630059,0.7571783402871383,5.693492343084284,2.387707688532764,5.091551650662265,3.700349452807051,0.8298918224388782,-2.8612839428801844,0.3956357244229597,-1.9793816638712058,-2.217339563904928],[-2.0197104247737667,-0.7404562040722609,-0.6233387783457955,-1.4133006928232286,-4.143503813946903,-0.7862305721732212,-1.6012622897439617,0.33150216524665166,-3.7895424704859706,-5.675659195909536,0.39785872616488305,8.333157953436245,11.527989798564853,2.333227116110547,-0.3467165607834567,-3.7083619924292144,-1.074100917235232,-3.2279089176163254,0.1858820904178961,0.9231576802341968,1.6552025448590286,-7.0784963682008675,-0.5384309459379797,0.19518622179343104,-0.42685221215875535,0.9221483919695871,0.8052337970632064,-6.680132760759291,0.2801522684549734,-5.243794989345134,5.450899425829105,0.024363710251686786,-9.486861906227087,-2.9816927449875004,0.470432463527362,0.9405904608817663,0.24169239065655934,0.3990878273205679,0.45903445535685816,-0.05492395887205082,1.3401062601652651,3.9765195822183657,-9.642403350548268,-2.682102919620599,-5.21294352367254,-0.6725539485267767,4.0936466476847535,4.303511529605417,1.8184086601463714,-10.383763659654177,-1.082386363014537,-2.5281675754043116,1.1388008035586834,-1.3857142670156726,0.45434936186387875,0.4515409161103253,-0.36328607605801194,2.000303423366161,-1.0568285641379118,1.5143425370684656,-2.6678517187921877,-2.40084117809266,0.6643855149993835,0.9549690323949167,4.269150974286711,1.304938873745742,-4.995147415490129,-7.733514765472591,1.8196394694374083,1.696532072241786,-10.643869968217748,-0.8361628571159436,0.17693086287968812,-0.7355435799758381,0.6663831783481888,-0.8057529632400038,-0.6697404153803939,-1.596810947808681,-0.4205636293241716,-2.2677871024014706,-4.693906078399714,-2.81069726592026,0.18786505140105236,-0.36986960146794595,-2.885680934143758,-2.1875360194675966,-1.0642700562048317,-0.6720042625348424,-1.0051305490381794,0.4768359142438442,0.7356465295441167,-0.9006088988089329,-1.1522304365933296,-0.9578627125865977,0.9691705773940544,2.651020611754876,4.051853003760475,4.261105614733459,-0.3793199510864667,-0.5997436614377508,2.429784115640643,-6.221024424380145,-1.4427281797095888,-3.5170493075375475,-9.814375835544626,5.566767241875286,-0.46338789265384217,0.7852539564671531,1.125118566228479,-0.17011842897055923,1.485494130106008,-2.367506752341098,0.08907706989546847,-1.3876531744613416,-1.9950323991540233,-5.365195827739999,1.4502181005762336,2.729768580676182,-3.945081083530828,2.55180472067489,-4.906666967471437,3.0254786555715802,-4.711317342423293,5.585815961725651,0.9829673284574598,4.068049761297602,1.3562166315824828,-0.8777795862967266,-1.5825205278327246,0.15322064038456706,-0.3758061837677001,0.2650567447144939,7.313033201293938,5.771201534915838,-0.9068547929316955,-0.37754542008008185,2.1152048321882844,-0.6115988689802391,-3.363695975249501,-0.3497839368306673,-2.995362913962661,2.585276513723364,-1.019675374899358,-1.4964848029144142,1.1946168643347628,-0.4648598368504916,0.44617203487019086,-0.2521328921967574,-1.7283110445357606,-1.670956414639452,-13.571407071058506,-1.2017692234294879,0.4447261868502817,2.787949501430171,-3.414171354071382,0.2616294624986012,5.690980098771928,-1.9714426369870706,-0.5497602586331405,0.10494572438253416,-0.6956827107002109,1.5544742333438415,0.6187596774221216,-2.7731112578180914,0.6390815305080738,0.15367621444316126,-4.435180375958698,-2.850944880225931,1.7656078242756557,-1.2702145813595134,-3.780857449559222,0.30110009759325773,-2.0026259375434083,1.7369754551413443,-0.2931727204856311,-5.516009599304573,0.39800868416081103,5.4838147125051595,0.8945472982011904,0.7460408439025559,-0.3871669755545877,1.8993107457129,-0.0253670030940707,-1.126044322483462,-3.807884683273511,3.9461988789189326,-0.02266074836477296,-9.146799093001405,-3.289826335163819,-0.48693192243507843,-2.1072994277599726,-0.2851968696772488,0.35276264956512887,-3.032161933628692,0.4017896778091156,4.236229699907561,-0.1572205167604478,-4.17450772338489,-1.6839549807152132],[-6.650141151181252,0.25917517100047527,0.05480955642075785,-2.027917604462426,-1.7394139991675137,-0.31950621346743086,1.6281360219883478,-0.5242768129511788,0.9547843791072184,-2.203763395387042,-6.108403564907651,-0.1839913514659747,-6.496248350622449,1.6582943624895876,0.35324132525253066,-0.33963809817781787,-0.23517584969043898,2.672413272446041,0.5267051401371028,0.3086063285443673,2.1580463870182127,-0.16179357360786287,-1.5101133378929659,0.15458183934618877,0.7528341273678036,-0.33933970320755813,-5.850204055569801,-2.5052461906664787,-1.9536913011418282,-0.1134026423145587,-5.147096623446423,-0.08092999037520855,-1.9056830632799033,-2.072588029863921,0.3597390740332753,-6.959099275544405,-2.320634509504141,-1.7111595479762263,0.10508395150859505,0.5340352091817129,-0.49848508852726015,-1.9996548490106072,-1.2829189551503648,-2.771291906724281,1.0025812013311806,-5.189370035855893,-0.37802293412594584,0.7128376356278391,-3.9118592045837133,-0.8064095073820808,-0.8475494428104406,3.883696617668812,-0.6020734272116215,0.7491221910222181,-0.7349556681872618,0.20630717982567756,-0.4489956010467092,-1.4328950515724193,1.4588832320342016,-2.276002170761945,0.31215485991796293,0.659807840022235,-3.7724015967263442,-0.8008804392298736,1.3802447504179192,-0.7600250271890802,-0.1312723665142916,1.3164591935459236,-3.990627960237922,-2.5467223114280215,-2.5166522986557847,0.7875366309900234,-1.1443668822983601,-0.5718107096885219,0.6239559246432471,0.9716718592172704,-1.875860568795879,-1.9984015062731175,-0.4709227175406883,-4.9720229519982215,2.0961795437975788,-5.2062026837623065,-2.2626400388672567,-2.0327750514985663,-1.7326620024726624,-4.396690419874153,-5.5846819980260465,-4.972278205618826,0.9269162999984745,-1.7518818093682067,0.1748407332719401,-0.28322408028102486,1.1231431501881688,0.19012268363355922,-3.907522157469417,1.5399021797647325,-1.3393761570861242,2.289398480362074,-2.6215756729121935,-3.734203322647788,-2.1023012849030134,0.9519722895020113,-1.8804621383220668,-4.437246144574021,-2.1805269082508354,0.3284361648600919,-0.2778678691778696,0.8145553325475315,0.8482604589947145,2.2820087031628886,0.8435765938335484,-5.039637893701821,-1.3767466389459713,1.3021316841015103,-2.5459582519451485,-1.1861329977552566,-4.208793138400698,3.695175268793052,0.8872952493518329,0.7922936108306984,-4.510813563801395,-4.012951528762755,-0.18781337356376385,-2.783359097216014,1.8754033679581534,-0.594839437966561,-0.8875129656590421,-2.090725731340035,0.11527409260551509,-0.0026439501453938506,-2.9801274949235443,0.6395566688352873,0.5933603731725929,0.7187588991648753,-3.808684236451364,-6.534215155706795,-2.7874523693645035,-2.2061455559143983,0.4087192811765097,-2.214509659960403,5.314911961158372,-0.9799398282451601,2.1930350256932147,1.5584017965812782,0.6597694643217155,0.2370434881696872,1.0505576765648332,1.7243945382587824,-2.6509407799197855,-0.19022477201799512,-0.9745228402674497,4.172866552412957,3.5794586677547082,-6.153316974222573,-5.839737958831822,-0.6757491842860223,0.03421242669694168,-3.5892872399546114,2.7174376576350845,-2.2833183717622396,-0.784582497046723,1.4827124807267442,0.4705215989160557,2.4580860394327884,-0.3268691730969836,0.4963119920250778,1.0333165325713964,-0.60545277590722,-2.740567403157728,-1.1856286752472975,-2.109342329640093,-2.9883961539626474,2.556121544716824,-0.7819972272597815,-1.8142936738530338,7.952573952504566,-0.16932399154530975,2.738191570563517,-0.1567734598707946,0.1130777187863443,0.7106792134417248,-0.5459393689148082,-1.5627603536418653,0.23699742891016112,-0.8017191696573239,-2.2723829870227363,1.0877926663539312,1.6603252658232137,-5.076352115878597,4.090311721921809,-0.23823309415770924,1.5594486153165747,4.179113055124885,-1.1832066416915183,0.11136190189443866,-2.3756843983501645,-0.7145683342217127,-3.6382412578304333,5.812836274161498],[1.4495496483317671,-0.46428049528905,-0.4736858320224387,1.119403551497961,2.5154572909316126,-0.005401234346276271,-1.6747230357416163,0.6408403671081974,3.9257722073192935,0.5784723425832686,1.232766105682547,1.1840365020199224,-5.8450441000769064,1.0511455599884265,-5.310762948617215,9.52704284096662,-0.5676576014443988,2.9000590880877843,-0.513823363080953,-0.6888123512292295,1.9430481951599337,-2.472377207141769,0.3755527349839885,-5.249941295787637,-4.51177446163991,2.266972851527892,-1.1897281711326986,-2.1653620908624682,1.9282330977897286,-5.6777390298639325,-0.94281983872563,1.9268451763785255,1.5611410817485554,-1.4781259925944839,0.659587827403893,2.700279177886399,-0.06871332650373956,-1.1937695956681755,0.36363972502817515,-0.45516892317875446,-1.5231027621116258,-3.39794141471291,1.593811994116442,-2.8838567640388884,6.541215243862611,-1.1123192020491959,-2.6055446458719533,2.814323857599294,3.4303500514041145,-1.4353174258200212,2.2097753702447456,-2.015675544187907,0.7777292488084087,3.7061078819407793,1.8542220126413667,0.25243657320336094,1.2538346129870168,0.5206163660242118,0.23883144673713158,0.1863786647993853,3.2477039488244417,-1.8254733868988118,-3.429696595929385,-2.60763098349142,-5.286752422021226,15.173015733812262,1.106536087885562,0.4770065129303496,-0.30343383276591235,-2.2610566177839817,-4.092350845239753,-2.807881892309108,-0.23355836455529508,1.3167469904137847,0.6353557717066904,-0.10822929348571904,0.1262025070530185,1.325284125718563,-3.3132218795515245,-3.7804690043674114,-4.004901646564467,2.92975963132403,3.0714439062598573,-3.551989088644432,10.86564576457313,-3.299642969858511,-3.8439086971653578,-6.43750543532251,-0.39475452978585396,-0.9099365118337335,-0.020993291093266093,1.1580508882632468,-1.3987475673880196,0.22391301024992072,-1.2295411041351476,8.172805695893002,-0.6423437623580599,-4.720862806881051,12.890047510788905,-6.563333288238467,-0.7638891613332945,5.348167896316067,1.8919294581541126,2.45369725004085,0.8646077837892647,-2.013003978658471,1.6884901862470059,0.6613653830131365,1.9084187329840507,-1.540991799262774,0.298468328106297,3.1010629401752103,0.31942999739633593,-3.211500255620534,7.183204659620912,5.074946086989124,-0.6967269458656905,5.117031162573341,-0.41546047985026335,-5.513626737391157,3.464746761690653,1.1268925615009613,-9.952320514537494,11.253024170884203,-0.22509737125575865,3.4434629186697148,0.9059050144995425,-0.06004226269796021,0.7836471431802648,-0.011224511305105095,-1.2697334532986866,-1.1995727230161892,4.847120803298134,-0.41381112690901395,2.402684993101927,-2.5650505032429614,-3.7695906213321644,1.3633753316970756,1.730523012022302,4.7424350717411485,-2.4082043101915365,-6.20335991747368,-1.4630871593737964,2.0757943487971424,0.46616364919051656,-0.14403356006393433,-0.13502411409697784,-2.9336920452097224,-4.514857469002674,10.573142733800854,2.9971971832067803,-7.11467734252831,3.042610979717202,-5.110395488266121,2.10268260792934,0.9109627910899223,-6.244675333075847,5.103737173167014,0.5831347135168253,11.556560997048,-0.09720074712217226,6.131641471635586,-0.08824724422472087,6.021014953090971,-0.013880299795156767,-0.016978118625107723,-3.5610844677760367,-16.413185513259837,-2.1416650098698136,2.2899935274847403,-2.430156833786655,3.635721573479987,2.302980969336651,-1.5577839686552148,-0.9216359785205214,-3.746013571995146,-1.0079269773536297,-5.501812836556608,-0.03079640866162748,0.7762504664150802,-0.5952691044609522,0.30776246334480106,-0.8350710799792986,1.382853887395301,4.068877673518387,3.564510378787705,4.932495882099119,-2.0629120968038133,-1.0918007108989825,0.9196811246869129,-1.7145425523084465,5.508185217905851,1.39667991670809,0.043673513582873316,-1.2607083080632329,1.7505484965170424,1.0581535422520172,2.692664286714689,2.366604804011696],[1.5541730755433214,-1.72951042901373,-1.5558726688732876,1.521713021264668,4.677526806073984,-1.9840274887346465,0.10539639064555974,-1.111983234707263,-4.282346178491795,3.0162054584976676,3.089112989786811,-7.412827968342513,-2.1048866843939757,-0.7249084025767899,-8.02637111094157,0.8390462495458756,0.4009411242024211,-3.9607280172598514,-0.08029040386421356,0.09651612781261325,-2.0540269127689297,4.21803480446281,-0.36471173243105226,-0.713326757235763,-4.409932351671684,-1.8650494585814938,0.3019380390775705,-14.881407286862414,6.562346869498653,-1.1965365825998087,0.6782941654335831,0.33486774464074964,0.012003151075862164,2.1678383010646227,-0.2918486343464989,5.606313776937413,-0.08566213754763442,-1.2357158460474944,-0.3274681384765432,2.32369984109725,-1.9760417367469523,0.3446174012433711,-4.7390706693854865,0.32638235193749593,-2.5727038884038453,8.98635627568686,-2.3106203837702934,-2.540854690193948,5.58883793317172,-4.902479996148938,2.8145791050938502,-3.045206230752537,-0.4463491575191749,3.0212954337548803,-1.6336226699402723,0.43933114299126574,-3.9835086544580087,-2.1352030749441,-0.5031628738640921,-1.0071841500459178,-2.7858072352315584,1.5644256200582562,-4.441538403538044,-4.788772124539359,8.308325255729068,2.0350283927068697,2.152874002928418,-4.047444999435415,2.125736426833575,1.2647472671849564,-1.5403439114502315,-4.164936941976388,-0.7636160505331657,-0.21071942296526713,0.02370740358370877,1.787529569323777,-0.026586473033850096,-2.7136912942017197,1.6654254180017474,-3.2193334608834583,1.2733837543127478,2.2023145560476425,-4.615208998212117,-4.452642980680319,-4.164501466111657,-1.0950120567848283,-2.5411807772071886,-3.22725362262121,1.6448691373073177,-1.5946355611270993,2.5524438439691424,-0.7452638465982773,-1.8579769706418345,-1.2676263277307482,0.28410851387566705,-2.410347458490795,0.17503563533854638,1.4363867648615376,-7.041282803557692,-5.3624210172621005,-4.333332903145893,-2.0470957503765934,1.2234799386967103,-3.695260109309296,6.404235306859408,-10.078267046333504,0.9625188092511245,0.7720100242801992,-1.0144936022742195,4.766626048400997,-0.10965299943044822,-5.6705089544921465,-0.10775476909752725,5.179626088566753,-6.6960257452473515,-3.830612935198639,-1.5064932110336784,2.0289235298238255,-5.549717333621111,-1.5916198029033464,1.5002264148373787,-1.0822723036371489,-9.344738048201338,-2.638150261544473,-1.1195111517754481,3.9514856587416283,1.4004781462292437,-0.13540550747391494,1.5002825359614251,0.7071923209309735,1.2209235960928195,0.8394991329126995,5.137347369917138,-2.061539025173836,5.128918499638395,3.3261543408381344,3.2039794649220235,5.216973130389029,-1.141812971191845,3.6697993302111858,-3.178134902054974,-0.7184011286352098,0.016117249434690777,2.2725469749307674,1.1208284385680047,-0.10738345696843311,0.08410865232812369,-5.6397820714845555,4.893310419751762,1.288685764667538,6.7218226877934395,7.243254177899883,-1.9967010085132633,-0.7578592792531353,1.3317986547262037,-6.705149428703471,-1.6655068256638115,-1.5172638117200443,1.697932184141387,-1.1528928385721486,-0.18223674557395467,-1.5630962929027445,-0.5517869475665849,-2.2835942714344735,-0.6200597512138214,-0.6511988361598717,1.001208284706217,0.579602168820205,-7.071326221284303,3.0843949160790314,-1.708544699165269,-7.8783371977786905,-5.131925828050043,0.4215233602138225,3.771842477276654,-2.1267038373843783,0.46164708577296015,-3.927329436789653,0.5600601778930469,0.739736720260506,1.323275027594572,0.3883885309036094,0.5866836925117441,-0.8699294638910843,0.7049786206413741,-0.43586845690774906,-2.2251325650957883,-4.440277130298451,-7.425560394647179,-1.8765871619506895,0.48416729168359857,-4.038132806474627,1.8962061852540713,0.039256532615832104,0.1842665158118495,-0.6044689813555152,2.132054610551708,-0.8270983872777891,-1.6600323252825415],[1.8006801972473687,-0.5390548113533705,-0.7033753290170788,-0.0293029604736988,-1.167995133839509,1.2828089271310195,-0.603605613685036,-1.3317396408968476,-1.60840200878412,1.4746199914188673,-0.33563220810570893,-2.4964006729671206,2.0955442325763944,0.07274310124158595,-0.24387910081697792,5.801706398393204,-0.04224967532262359,-0.14997984678923493,0.08783524045300724,-1.5458483390283781,-1.1350297391290456,1.3567251435349856,-0.5218810841614736,-4.25507613705024,-3.3881701405686955,-2.915906537240882,-5.849367015156134,-3.5593370190117914,6.858470515061509,-1.1318701974022738,-6.139882880648051,-0.4258441168954039,0.9126261299646728,0.8841337516707768,1.7062748267998644,2.1941624290030504,0.3120897063402226,-0.11265937714737713,0.3432829623399664,0.15099261233881817,-8.032265567744393,3.2404821044904817,-3.281548462630359,0.414202867856325,0.6878112678056749,1.2656483105622829,-4.285470692098658,5.473345184930383,4.842725220990456,-0.1973068903616529,-1.6666692503526832,-2.0229925427258166,-0.5367334913726826,0.44388535225918363,0.19120203713745254,0.2142872398182875,2.662558730474221,-0.13501530637949127,-6.481350308799208,1.2357597618651226,2.8906678179774357,-2.3260032232739403,0.8032335038168776,1.533996323434274,-0.331940807765626,2.627417826706976,0.10711166101733449,3.488846084958309,1.3585670754722854,0.5754325461265323,-0.36183481364885794,-0.2041532866659411,1.0641665634117385,1.2544891670332359,2.1065874164985834,1.2606625723411968,-0.10007143835107744,1.5171460330697735,1.8366823896682631,1.965389126064212,-0.9764159552530609,1.6586169428142667,3.2635353054686562,-0.2286688515749007,6.078804365551915,-2.293795605388487,0.35957805071892446,-0.43851555699188566,-1.1134207543128671,2.2295402555217128,0.715357519241905,0.5140738973684542,-0.5056022007137132,-1.3633803898315462,0.6156394179051996,-5.235248169075564,1.7592127634190664,4.458088004600144,2.636883618999981,-0.8011406553233457,3.4410891039829834,1.4217237218097154,2.81350152509598,3.119673196927627,-1.0964971330730975,-5.382268507271285,0.15090584840811627,-0.6056624023486343,0.9981512661462624,-2.5450232527773653,1.1895734181864086,0.27660450638013817,-0.9114944860833565,1.0067389727964986,1.1433412152033529,0.0392185272858617,3.156381671652488,7.080771375005227,-1.7697995602507837,3.884976137168934,3.6268500340396272,-2.786202540402548,3.024737704204057,-2.19275938520963,4.48882206975013,-1.5609475702961675,-0.33835019347481243,0.06141265175625565,-0.8685908356393749,1.1835271684940072,-1.9732267679783528,-1.2741876523950026,-6.104650914042292,2.6834347864854893,0.4381562008889255,4.511743266550916,2.838292976974325,-1.1194140187191934,-1.1686476581846348,4.362569748676035,-0.22564627684886768,1.4234966873105461,0.885615337194148,0.8790105754853378,0.9415049763452217,-0.06480182871211217,-1.759807212705087,-0.22182897648327837,-5.082735295868815,2.4867365661139336,4.526069215738153,-2.7686904387282056,5.273142732658886,-1.2217206551416107,-1.330768815993292,0.6221875385215934,4.24141702279434,-0.5852234064075735,0.92556740895249,4.492956820571723,1.1850732413476512,1.792270301027109,-0.6384496629391122,-2.318020904866981,-1.058548210992577,0.5752406881433136,-5.455885242389943,0.09071377365072493,-0.04774864759285297,-0.3786466710617948,6.0350746035975735,-1.4686357617212036,-0.944338457025306,0.20137280787197678,1.6215518256612893,-5.248075834791624,2.2333432061809297,2.015704411304582,0.27533882880668853,-1.0285774541692738,-0.46256280958414564,-0.7044010585967485,-0.1939574860919627,0.25642146151827516,-1.3440674877475083,-0.6970060098934641,-0.12201356493200337,-3.1462484379817637,0.023636544494334447,2.5411731205028483,4.855968849457567,-5.702173155381223,-2.357331029453762,2.7300829885935936,-0.8958619679465991,4.8533830097817,0.3529210143828845,-1.7499384933067519,-4.635234887091297],[-1.2706013792608437,-0.0874015291941835,0.5536399661624152,-1.550672033245904,-0.2836142671346913,1.1000220520942972,-1.2387432971736112,0.3427547920412047,-4.301673005703874,6.9018858306414295,2.071757304524036,-5.968135231110179,0.590339841174643,-5.650526030801154,1.0087555873149303,7.015629268183368,1.2699875422641116,-1.9577787790171657,-0.539083107286086,0.32522801422823217,0.36487627510535026,8.22499976806117,-1.0220217700086038,-0.3065724366121458,-0.013179080599949515,-4.086589438341014,2.9700467190569593,-0.3724609386932914,4.88409508596288,-0.3358056679686924,-4.895293880834778,1.9126148176802553,2.869656369227234,1.268072607167085,-0.42134474220862905,2.718054458865503,1.3852377083923184,0.9017069789954235,-0.11243378155852392,-0.8838593029368892,-4.802875294399593,1.1004634404894014,-2.7690787327295303,-2.524387732273513,0.10459261250269601,1.2610058732363167,2.5043269423205032,-3.029361662078974,-0.051075154502620665,-0.017566926132802193,-0.03908143583684294,3.6606546426501203,-2.0525494767072265,4.3271461029383635,-1.6919587191284913,1.3558672881474083,0.28521976034489327,1.1134277518324656,-0.1513328939661879,4.2177165827023275,1.5228485126051274,-5.072528119661787,6.963362105124435,-3.1768678415502496,1.7269102314065707,-0.9326385174680364,-3.076055815650099,-6.1289534284148,1.682884992093048,0.32055364628361904,-2.1131906895771135,-3.3189830282475192,0.31718481134026255,-0.50995204715764,0.7496820798127398,0.2849023816104268,0.5590819784505526,0.8240979680673914,3.237582900769304,0.9157962168546457,2.7683784801985203,-0.5776691849587795,1.8675023659471925,-5.735028105671857,-1.9055511639622136,-0.05105525456850674,1.7680809148394105,2.150766617726094,0.6519485183582575,-1.8709876835440464,-0.41887447374694103,1.2877012151108898,0.49129516264604334,-1.1979599212345386,-2.8945419722861603,-0.4667224777144253,3.6967112579772663,0.2696492863748367,3.064998374620063,2.0840939286333424,0.19515767155185296,-0.40309264852824583,-5.894061189485578,-3.10727827130007,-3.0619252905948335,-4.130074720859525,2.2921803365284923,-1.1159216364780045,-0.8886244576166162,0.10275924904117542,0.2119273560333798,3.536754116280952,1.1716391210138137,-1.3936535124581955,-1.1089605382256897,0.01812504498372304,1.8637298048750646,-1.3639348239679774,1.477219974239951,-8.643299783040765,-7.365325296121948,-1.4135793673570438,-2.0368179462395846,3.4700088652025287,1.229821881333857,1.3001515267223875,-0.9272246594130666,0.7430419644438642,-0.23434126040075443,0.7864132657868128,0.958375635023338,2.279239116652869,12.68128952888752,1.5074694753248186,4.170817876991061,4.385929645007793,-1.9485411228410718,4.599551606064974,-4.159494310645324,2.5250919404751087,0.3145483625294403,1.9097451865057422,-0.855175017207106,-1.3227798301242937,-1.524305550128063,0.17926523495443977,0.20901321464959896,-4.374077029074351,2.46538374186401,-0.7098059214187332,1.2549087001471828,3.276812073248362,-2.358609069102805,4.11610614939457,-3.4482101175770428,-5.354853362999852,-1.2839695646100626,-7.70645933951415,-1.4987287063421368,2.5449554908964247,1.3239833023062542,2.7300147070688974,-0.3493378394922597,-1.5115549258732173,-0.4042152937043231,-1.9179156935610633,-0.5422653644641551,-7.812995811053108,-3.0970229602967354,-2.424926086892065,4.126794809722653,1.605495257353694,3.3438966930264615,1.6430071089094171,-0.966026647290001,-2.6308080066677,0.29358209832892035,0.06833792616266886,-0.4436790755833421,-0.17970033377918848,0.28427476375635413,-0.8174321532020444,-2.1264296400102536,-0.6367650946737846,0.11255411701452162,0.6050825621087371,-1.6688417596791587,0.8250466687416028,2.7089690650544194,3.316839960902891,-4.860393207630679,-3.7607165316674043,8.374895260080002,-0.07453476663393692,-0.304916857537307,-0.04094448134440002,-1.006842150652686,1.1366171976401938,-0.7459141748438808],[4.844161357290096,-0.5469276652991808,-1.1950157574651499,1.4908431462203213,0.8666951094865296,-0.06230419736706517,1.0680677496064517,-0.04296760892675234,-1.0004810543168514,3.636308144290577,-2.1550143688810866,-8.671373132904378,6.435686836122125,-8.310021277868962,4.307243696281104,-11.250264477358442,-1.0405581605070446,-2.633986096839242,-0.618062821078058,-1.104187930743757,4.024341449442615,-5.1555624144265195,0.5752575387513342,-6.197827828905738,1.3449521924154704,1.7118428542123747,3.453564863095074,2.2214716059179094,-13.95339223504829,6.1973295252917735,-12.12685782475929,1.2593042659723814,1.6266606187014545,-4.428019659305407,-0.12873187218748,-2.123331816811228,-1.41758042870842,-1.2483143629291378,-0.17336130897466584,-0.20525187438056092,-6.3762417307396,-3.0095255187540837,0.7124800912386561,2.8802443862144558,4.943133500900358,-1.2701617440595436,2.9140485796208457,-2.2986274145344407,2.656694494235163,-7.910067268120531,4.120790436599957,-3.9711268790784424,0.36641807967106826,-0.04975030775422372,1.3232910526625536,0.15930549251467058,4.315463991436445,-0.4026942906072226,-3.93004800907806,-2.4361572577302,-2.98755747089039,-6.463918282462191,0.7183288230898264,-2.8429269043217804,1.5665231767714434,-3.702433352448931,-3.067923766470318,-1.7705030082236468,0.026605576567658152,-3.4917915812503706,-6.120225194453588,0.6925559862341398,0.07016177636698927,1.0494053893718,0.026411639421384907,0.22568326521421977,-1.716349296662617,1.6112731401235052,-1.5905760867460759,-0.7448271681401748,8.32409007296441,-0.06308808448958214,-2.454737566682704,-3.0644635329543144,-11.805044187039703,-7.595443299903486,3.664578192969382,-2.3686491804025804,-1.3570078026223376,-0.34124972103791834,-0.890490027533335,-0.16305206624678747,1.3265744864550528,-0.8632860999076076,0.13345785807836666,-2.3083259447108877,0.3145208135128323,-0.20150100754257805,2.3365531636768266,3.6582630144081767,-3.4394353340010273,0.323077144337786,-1.286010826891427,-2.013863584516718,5.3130195411056995,3.123867054817578,0.2604059525445852,-0.2628901209642939,-0.30190650588776846,0.38007731143034507,0.25030152682897033,-0.4127282754212404,1.4059166859843024,1.9093400610463227,1.963138789168378,0.5944478633967311,-6.197968424461839,-6.732857755499396,-4.64242011345581,-1.2090562806289582,-1.8461053194621877,-0.5926288963504193,-2.1767460805423657,0.5019930756534046,-1.6980148700447308,-2.0529979226478576,-0.8540666037532789,-0.8001420401530428,1.145561478521396,0.36191444182520327,-6.626931277043043,-1.6821886084615374,-5.272367161106393,1.108651597816289,-3.5248852400409327,0.42121449259938076,-4.664590805441132,-6.679424603539853,1.7363425046101442,-0.14398895345903054,1.9559795082211717,6.3568521787034475,-0.15854871467375956,-1.3769695606207655,0.34702099541617515,0.8114416884948945,-0.06443310035102635,-0.3410870182878951,-0.08454987344165991,0.014691915245026504,4.320505777013298,-1.8230445874808254,3.177672944027142,-5.537308053753406,-15.976996230053873,-3.3403609100523752,-9.424225716974785,1.5505634162988513,-4.5470021045947595,-2.5601306374399537,-0.6544456279526756,-2.322995407762581,-0.185434298363868,2.4489587672114643,1.051962013738415,-0.4579156159918992,-2.6603841479449906,-9.494726787640344,-4.265150844203019,0.6872370927001972,-1.1875558058291285,-1.326113812986578,-3.0475710547450414,2.490698634146859,-3.863720182302893,-10.919499250742128,0.031244122821702518,2.222272861225217,-1.7369715095903555,-0.5034044774517668,-1.0817124700965397,0.5473292012283211,0.49642410254557423,-1.031841637091739,6.008439286515357,-2.1888076394145286,1.0926419631476834,-0.8047598980600483,-8.427690465275662,2.418239375755209,-3.843669515236435,-0.09206005444633862,-1.8363978653581892,0.5574057220842775,-0.47919411050150573,-2.9210664241786755,1.1977835333990157,-4.728137883406122,-4.028117596985282],[-1.0473443515721643,-0.7053076388714343,0.9200504423478391,0.7063102471665056,2.7093424961087282,-1.7573320801445431,0.7228907430757749,0.7097279352980694,-0.15717657595724574,15.700935411477326,5.9416043219576276,2.1975745125460775,7.853694026660521,1.6682598560816964,-0.9343423548842784,3.4674908339341726,-1.227409880459536,-0.2099809312941019,-0.13019157507560825,0.14140926143781019,3.3060015611447806,0.8391198349202231,1.456866054630478,1.7171663605718772,0.6242268497287494,0.9807983139116058,-4.679042856186421,1.7883446071454747,4.087154816568867,4.943274738452879,3.190406176377742,-0.38148750897667716,1.1413022140906912,3.725205858732898,1.235966930487828,0.9663988761313279,-0.7961774477119514,0.30590455716647846,-0.23774294584937294,-0.15164514236410132,3.863367927105883,9.831285874675633,-1.6589492155431402,-6.06466279995074,-2.519961949744373,0.2080273842644465,-9.793304726443887,-1.5553274059885667,0.7317328227276656,-0.6500688719166352,2.6837068746186596,3.8977407698864033,1.517151259554864,-2.927738821049451,-0.29003295440078136,0.9284052498512019,5.369196217038578,-0.5071007253166736,5.845814802894736,6.759303253655415,0.014987476816059518,-7.537844793452593,0.4233138921047749,0.39043640913839867,-6.834511875411482,-0.6213169764012475,0.6273295601253394,-2.2411578800018157,2.1665076282706326,5.993155415814553,-2.465174790404339,-0.8971588851592606,-0.7245864892343913,1.466325768230466,0.8500422919906586,0.20742031245379938,0.3213346299200539,0.5871630036349856,-2.530520773740513,0.2346813302554633,-2.7097817434358236,-1.083145958774595,7.661965161296686,-3.0921124728991214,10.919776372392114,-1.521692804641265,-0.3973483386196161,-3.061693989511305,-0.9281565608365339,0.6939231605044848,2.0738905894038964,0.913221623630523,1.1173868537950133,0.2837721008050429,-0.9833170527993879,2.234955825935086,3.4032653206153367,7.175277824211702,-4.530660914544104,-0.9462436915691762,5.685625084321468,-1.1189380913460192,1.3517614329635295,4.626101224214633,2.140723042453502,2.7549854821622004,1.0381828748755055,0.3318305216596308,-1.4171042361271258,-0.08199212257793383,0.5509470450765668,1.1804930221130057,1.293402099980289,5.02422491039994,-0.8600669893722869,4.332726275290903,3.8540362075021863,-4.2172951191805685,2.0647761250886387,7.777628855537208,5.7233709846143555,0.5236779119059123,2.5137113854571527,7.17533131686276,0.3047970362652859,-0.2351930352748968,0.469951219788871,2.286450095888989,0.7562204264522181,-0.8386306552410221,4.46737935103173,0.6172931242328289,8.625470506636603,1.625465782202047,-2.6528364032161353,3.63378542115604,6.361415490133851,5.984681874588174,3.426770510082913,3.699769396095638,3.196291809541904,2.7426246899464743,-0.2550935148786915,-0.6199366635989447,-0.5636892671854756,0.3314761245207029,1.0011086345858158,3.0499388417533346,-2.213542975305666,1.8928681939728922,9.771841865720825,-6.664020997704284,-4.308570577508214,1.1005589078128315,-4.680617204534797,-0.6057423767813582,-4.161069941098306,1.3925082973996235,-1.608981761611303,-3.6054045887058903,-1.2616649116999923,6.059731255226547,-0.10632629126783734,-1.8164596347716346,0.19752853788555902,-1.3367755215903718,-1.7852441590259032,0.5451278330797948,3.2965818542898466,2.4272993010439263,6.771724476946324,-2.492669898747118,3.7852709599063146,-2.9008131173335685,0.7300617672068138,0.7725099090510124,-0.7892855830257837,6.583703498611821,-1.152572196482845,0.3118063766867284,1.6644404293070851,-0.4534806568156219,0.8854904959193617,-0.7136500588580273,-0.9370728758266627,0.9440583085774368,1.7517848310825321,4.376833173712755,2.7982478377853166,0.586576402501392,-1.2595572527213366,2.0934675410474863,3.5901144021762854,18.65299920866388,1.3847545748905261,18.143126097789665,-1.0465265543534563,-1.7281502774286233,0.23763112263584865],[-4.111535685633224,-1.0255185486115166,0.41200564575056575,1.6194182588605914,-0.975064534401471,-0.6742006525123418,-0.5709282711924573,1.1393407913546083,-0.6157927225046821,5.3289213237181094,-0.8303651839817123,1.840145150922933,-2.0851297943321345,-5.118548948785875,-0.13056385881923244,-12.132024802097561,-1.4419636289403444,1.5488331757588578,-0.5850299808352717,0.6844066282791574,3.864965853580286,6.605891423946126,0.34071750509149257,-3.3598277980211284,-0.7362744705925446,-1.5663475174164634,0.31251210776595995,2.282090383483266,0.4934403581108294,-4.62761025843277,-2.5526642685268137,0.6100238277539172,0.8916086053267975,2.608930022390871,1.1207988162327522,1.8484229126152218,-0.23454853045211288,-0.2670014448135144,-1.485900279409885,0.273091581406931,4.626867330793332,-2.9613326272984657,0.14490561380824435,-0.5961656353680201,-1.979243030974524,1.8020212536624234,5.141696344585554,-2.8990312376986944,4.023566612871936,-2.988040966711525,-2.8836728867509134,1.8643302042304966,-1.7826188573517132,-1.141693780570252,-0.4975536208944832,0.9239632544699499,4.745122735844142,0.5644284962539279,-0.6098959029696788,-0.974795240697858,-2.512098086501438,0.4031898909786496,-4.669310240930163,-2.51054357628517,-3.47832737261483,1.172037132897848,1.1924220264773464,-1.0639151219920062,-2.6269806542038863,4.438032390215018,5.89244085132611,0.1424828209874359,-0.6471521074727495,-0.20633394646664965,0.00728843564026437,1.3529082085520552,-2.0775472864641396,0.7622888236261001,-0.8757069773525028,0.9110051901833998,-3.6353072576073435,3.003793437401053,12.466124163755707,-3.220854974994018,-2.704917268371823,2.0908955076832845,3.877819239802084,1.3273990596867846,-1.0051795486033555,0.9544596264112613,1.7338584051059636,1.5691094844263458,1.74793910207814,-0.6660366089600834,-0.016396197247009983,5.108260603405049,1.0523195259166478,-2.6483934036590093,-6.731487266105054,-3.832389586098622,0.6247565853463043,-1.2491573289436004,1.0513026736050395,-2.740177055048587,4.56424779712451,-4.8697144033413995,0.37857297766486053,-0.6029117343454264,-0.03378075024849437,1.1482648756451281,-0.6904174881240173,0.809933224724459,0.5617609321557387,4.172126375576571,6.00687930544851,-1.2791000320298338,-4.492719927190171,1.8437896175390391,3.1535039801833538,7.326472713607732,12.40181259866552,4.582281077510424,-1.7928007827701122,-0.14000250777545195,5.735840699012562,1.9444929649663842,-2.5783809197075893,0.09430801557825273,0.9549043293569961,0.44022389112321303,0.14093132602953265,1.4548797864286331,-5.482396890877599,-3.925133798164816,3.1618413340209814,-0.0857381664852525,3.133733263808253,5.035848882219913,-0.3852241594640595,9.238928716829067,6.5163217414249806,-6.37662473471899,0.3656437128931151,7.051338943662234,-1.651292488315695,0.3008732023798939,-1.2124462181962925,9.737787775799164,0.5760271998623407,1.3896201385288256,0.3256196103783003,18.960338852422264,1.111626893152366,2.4285623995683037,8.67258832482028,7.053053903740476,1.1745350432677402,5.887165806972405,2.495741828928518,-5.3634684688242995,0.25786107417588,2.087437106320814,-1.6041632133703498,4.5735486485314985,0.6536632687629155,0.21762889024533547,4.877794609667612,3.6932096663255,4.850615426654284,6.730437810367806,-6.614846565687444,-1.6166298867900488,7.46618383250082,4.522245426535274,2.5121010033138944,1.9272562143068308,-0.7654416972206135,5.4018226003285825,-0.07649599162133015,-0.27176039888714576,-0.9270315312090649,1.1027169560566663,0.6172808067698858,-0.5846900583602518,2.824430841968976,-0.17290652641254045,16.463546878703728,0.002149298496927588,8.121145058118389,7.090752885936064,1.397853847826173,2.058337718633733,-3.156497515872702,8.280014622844604,-1.0777479545122368,4.695192754786602,0.28150875322759483,1.8723390369011945,0.05116419633328538],[-3.7856828214113762,0.44509154559412556,0.5667859061619097,1.4936194827341895,0.4743490232708638,-0.07835081233123038,-0.21279396518285132,0.48066903906361813,1.886200829005199,5.848119924738754,7.887692401082071,-1.68042732249511,6.394514268701378,-1.8038070791370626,-1.477640598328375,-0.5222801531494939,-0.8920527788093647,-2.0707964680913413,-0.04657057242467406,1.107691626129646,-3.643276479679627,0.08008933076025165,-1.1019653942436254,4.311000920095882,-0.24324541206329747,-7.542634632175947,-2.4411794829994324,0.5694345384983515,0.9283083648363044,7.483396355321334,1.5860372202927566,2.17167007268545,-0.6490377306252872,0.730290832767982,-0.7503845477624032,0.30749581505336526,0.43602728166450977,-0.15646855308532936,0.988193203167326,1.0956853380626332,-1.620484426267399,-0.36205751599201214,0.2569145304111992,-1.0784656929244645,-0.1974200359833981,2.983590505262081,-0.28945811403139915,0.7002458038591793,-0.5498479987714023,7.160052621595333,-2.7593541262272536,-1.7063985104636317,-0.42794996422951564,3.6840165148645188,-0.14315486139275518,-0.16519767573730437,-6.607796030908589,0.12964869341317786,5.288508941008521,1.636536898604868,3.3252865635380786,0.9442332256412049,-1.3772716240709748,-3.7200386359519673,-3.0903732343143786,2.846638394660299,-1.0003700753441556,1.2008684663106264,2.711320073770667,2.877205517976294,7.785998759845593,1.6110604965823796,-0.6278924836955879,-1.5813322612391045,0.250228266166598,-0.5953968705246537,0.12184842957443659,-2.281335364940754,-0.14949639767085404,-2.112103376678134,-0.17156910238326045,-3.2679202638039406,3.0879716638099706,2.3607786067851104,-1.5514608710801385,-2.577750554310311,-0.6086902238724895,1.9073310670530232,-0.3191729903046454,-0.9973430715609802,-0.5520750146280402,0.05423390317400078,-1.246986386882331,-0.20229861197113508,-0.04708920877388565,-2.144498013241839,-3.0613754368136656,0.14616369214802635,-1.9085484724609216,-0.31966209048773053,-2.1454269074326473,4.694146668513123,1.1534988187099526,3.2990185586795246,-6.436698073004568,1.393032218345676,-1.5787171390116201,0.08512399060556401,1.2928842809867462,-0.807740792239979,-1.2515327219159758,5.7243182439016,0.7734161490673858,0.6734302947143818,4.82162001488942,-0.16791057122566888,0.6606615965193444,-2.927044540337161,-4.125245325624886,3.4651071857716067,2.4694538301498685,-0.41908705733075435,0.45740725058183646,6.749961703339229,2.801132596496611,-2.4189311860022844,-1.1834661015798835,-0.12226612701134411,-2.037263108219468,0.5527247193091553,0.4417733277944166,-1.1319374642868751,-5.978355794661185,-3.113168059349178,1.8514084198859995,2.37299610034705,0.8940446475964142,-3.4477045000132973,5.964634719831216,-0.36810299000059,-0.250932468198207,9.735117205300877,1.120072468933936,1.7941733747792974,-1.5513323512814494,-0.12817380647043408,1.2981122570333692,-4.191026857372236,-3.6042378360781013,0.46472339909348237,-0.01311515011331354,-0.0002443796062566927,-4.7848309939733324,-3.0698945514269576,1.5586048488904187,-0.7886498656310712,2.8641255538460655,-2.902514820381229,-3.538202861132135,1.3950060819852799,0.8427562396954889,-3.6388616234290647,-0.9996696767229574,-1.6570614138820356,1.1249816123640004,1.0674758542033338,0.5730932982449954,5.2443292514871,0.2531633476765956,4.020399189613403,3.092553973527918,2.3350255067402554,-4.1594344208493945,10.604154009435105,-6.497235434991756,-3.458775941618478,-1.1656485145242412,-3.5404331216333453,0.2701893143457439,0.8514378276057288,1.214457297162537,-0.7380764490151568,-0.0971799159571022,-0.6035234135851623,-0.8492289387170624,7.0598422754367425,9.307255575542511,-7.037232236452675,3.4440932884006,-7.091054338402663,3.376202988253965,4.04537182067682,7.173460645443874,-1.7132528484234257,0.6559568778801139,1.3254618495061148,0.23452619187862714,3.7977213667883607,1.5288238566732877],[1.95400719596205,-1.4579534613476004,-1.1066720696446282,0.553511809846939,4.911990510278297,-0.1971427352454343,2.1273164492899443,-0.5250568611425233,-0.18934531410763292,-0.4569922973454336,-3.2016064466681824,-0.7088392710139735,-0.8193926974313276,4.966366799907824,-9.433953979133756,-1.8419501950333652,-1.4421252282631725,0.23134743681663847,1.5463750374828342,-1.083447396993414,-1.8854853215299474,-2.2128577070058237,0.9162276614666557,1.0786316192922032,5.462402839609873,-1.1522834449465773,5.9980155562415005,-2.1736521104037685,1.8138349659205695,9.741790421630263,8.411464688835842,-0.1452487896656416,-9.197275784483365,-1.736500196966871,-0.5379371262097232,7.294099897294939,-0.8973441214904798,1.820324025185287,-0.6455529864127509,-0.48256197372666554,-2.011064477859511,-2.462237076323542,2.401368740352137,-1.959037829895004,5.41047952248335,1.1492526499471896,-1.2394749579125097,-0.8027111764351431,2.1714258140878853,-1.6727326357269514,-1.3657747755230478,6.358085929538592,1.2469494553228644,3.231895706035584,-1.0058097543753781,-0.5085800467853062,0.7770495751959986,-0.2934241492656854,-0.9545334129162463,3.167851484955512,-0.7525044886329452,-1.8834604269733317,-0.9831719955249048,-4.070973534684505,-4.575033577875384,0.7603819790561048,-2.083235082749084,0.7176038480145355,6.589983825998462,-3.296254492565684,-0.9621954244796752,-1.0906718760263217,0.009770756587931242,-0.10668528491869826,1.2048453104635015,0.5466596297186754,0.20174752103405144,-0.8475467321525999,2.271227124491411,-1.0850562158429353,-2.15177903678133,-0.4660231875476345,6.791963703137282,-0.9111520782450693,0.3288563639475711,6.362339443209951,4.233054731629693,-0.24499191681747576,0.9556596252775019,-3.589784829840551,1.2527835222915793,-0.9040759959706468,-1.4573685300620187,-0.32208244196842806,2.211760191872338,-2.4797602886992713,0.027230723956724632,5.484948163841814,2.660657797489312,-1.3401913954822922,8.20310534894456,1.6178197453673004,-0.22584557840679476,4.423695952797888,3.120351442182579,-0.32406614159017105,1.6859428592264878,-0.23519354517139202,-0.2445134178711436,4.617542217869331,-0.7529471640481904,0.5883094541212777,-0.9888638966481611,-0.11040003735267769,-3.1697610737176376,0.7181848839770205,2.366731822553889,-3.7638143411975578,1.3848552624803045,-7.371721165849708,-0.5021061353819948,1.1424744610775834,-2.367449382529257,2.674550940054575,1.3228478883239225,-3.771402180509115,-0.42840331595565173,0.4922801726023476,-0.22654018718216012,1.4540796115201247,-2.0295651931388776,1.378790799102799,5.783006610773975,0.3222026582941642,0.3937965291894673,3.6704967897571312,2.739089735977222,2.6686389221333546,6.593684120705519,-1.6166413794809962,-0.5156248952238354,-0.7492036095272888,0.24547323618203845,-0.8335697803790508,1.2337998543871522,-0.3203337175051288,-0.007378214405472464,0.1006677494664816,3.0659696884168395,1.0368394921641104,-3.04343413801128,-0.9916568177716555,5.900990196821883,-1.566091916567766,3.6830621895284654,-0.23659519075065602,-6.007897634044556,0.7971674834371538,0.7021053412919821,-7.995982617897666,0.16514052188147987,3.7611641220211447,0.13886047068381147,-1.3182786118528305,-1.6425195926982363,0.15582902580132774,5.100065242219711,-1.105741657990438,1.9563844257512,1.9571659593623343,3.691172772629273,3.1032773845161925,-2.8423579199256026,10.081056186089688,2.8472062582212034,8.583382815179732,0.5941170538193159,11.542109842454646,-1.465203203489141,-1.377840196767911,1.068773181318096,-0.8156956399025785,-0.8209122650248801,-1.1319111452965729,-1.919678394209905,-0.850152521243059,5.551293689814722,-1.4016609191514637,19.485606882106822,0.36054494077529503,-3.5881970701798798,-13.4717625895315,-1.4015341956949623,-2.0989070546206037,0.39332131284301963,-3.375294208298466,1.5469460226547738,6.434242177677943,-1.0810289110644944],[2.195293428360031,-1.536118762604598,-1.2649239647972494,1.704849048964442,-0.09907913885219322,-2.9997093182114316,-1.197656018389055,0.413934481200805,-0.3909177160701229,-1.421290439557299,-5.025395742812848,-0.9493417398236155,2.5152531100141315,3.923998203842379,-3.817177693617564,3.1880878685879592,-0.9462469438972299,4.311192841167341,-0.29554841612325744,0.5266865431756054,2.199802532835097,-0.41045398226769636,-1.3621730836627746,-0.36619811589911405,-3.1945422385101283,1.417122708420795,-3.2275304618560634,3.8199222428972344,-4.261857388394741,5.400054212685705,0.5647339687555578,-0.08933128005943815,1.825537946805218,-0.16801042066467578,-1.1474215681173259,2.7046845400727566,-0.6512676224235863,-0.8029218474649319,-0.5181170673274271,-0.44415531961169163,-1.1173764245437823,-1.2772784355530051,-3.447608977670985,-1.000570444682953,-4.260316703447636,-1.9388982458474007,0.575124564521476,0.408042258702023,2.448471857344476,-0.46928181584572887,4.772724278604367,-4.725524176329858,0.9181242516141805,-1.251056552320093,-0.5195438543485711,1.5420851924563164,-1.4977111366152138,-0.8062084542480968,-5.326105667508359,-1.8389314773249625,-0.7456247206243071,2.417579765308389,4.129508437772545,-2.4572702973573937,-7.175317042386417,-5.545074718482772,0.45185562078387564,1.1070213135268552,3.0923889736104755,-8.440140338720107,1.3945150035657374,0.7480378475183294,1.2619485193247066,-0.2585151278202473,-0.5810880751193659,0.9502895748201783,-0.14499199944452945,2.740349523541574,2.7660867098917334,-0.9000164995713348,-0.6911074155741204,-1.2425307787091726,-5.062646715870042,-2.7196702638399755,-4.130389396468046,-2.503027070856091,-2.757973344531661,0.4631589412428912,0.45383468618359313,1.5369628918573146,0.9486507411295999,-0.5367459094913707,0.8543242051072346,-1.424564959786443,1.3960469077338775,-1.245934640304365,-2.8101332251688222,2.850451903964101,-4.070692679890953,1.1118942337388302,1.9455923362096939,-2.695643816891657,-2.505608578376825,-2.099956855572192,1.0023072615717377,-1.3279488846824112,1.1398552039840155,1.5174013796386234,0.7620049768902519,0.4095371680045769,1.1545479956462075,-2.324109816467932,-0.2737845884676461,5.147007011592792,-1.7082168897762642,-4.723140807327838,1.2029976553365782,0.8034074544248112,1.9146413937754243,-2.4854749334923847,1.2845490091751601,1.5487622777276788,-1.6841586789140033,-2.9779394094551463,-2.871521377724093,3.1743652221564864,-0.281678556804815,-2.5159307159450806,0.6148687047905332,0.18831011660425515,-0.7138809229951139,0.11298836929094146,-4.366843488278611,-1.4053386453018288,-4.000973108705468,2.44931527244608,-1.3780305211532027,-4.480889498300914,1.901994610073091,-5.112083466363911,-2.969837974209565,2.551538260098659,0.26159944335564367,-0.23870653969606181,-1.4163701844968057,2.248220632905227,-2.6017180220666987,-2.1960581792451057,1.002152749846521,1.8140712781109423,2.8102445268465956,2.864162107730251,-2.4397492645119443,5.72222377184027,-5.13429122037489,1.3723605434862722,-10.350650366886828,-2.43284470591919,-4.550318274664508,-1.6117536535430785,-0.5303081198555216,-4.247395459342609,-0.785003616245526,2.005622464349983,-0.6764116159823297,0.9866422517146767,-4.2697210358195266,0.18980432331414332,-1.57557758071458,-3.1113046850640154,-4.388969475402808,1.12505300849019,-6.957232559278372,1.0252220651664306,2.303531358615841,4.065411653559648,0.7964512131902827,-0.43937154359868713,-0.5106452362738707,0.05017621113240111,-0.9392984669659851,1.1211501849922831,-0.8578021483491627,0.32763026599293577,2.397828571549024,-1.4518738345311426,2.8541628978281035,-3.0203596133735653,-6.705396753961535,-4.85306996350112,-3.044381740562943,1.537702145657651,-6.829544904674045,0.5877531196983902,-0.48714213566587095,1.7147104952022438,-0.8519817588544909,1.283574606952807,1.0806438597360057],[7.400723871106552,1.0609905407306803,-0.07591947376226595,-0.39934222552206,-1.4465047960240307,1.5320297170230674,-0.9694055875405225,1.3964778349747713,1.840622115864173,2.283397109304679,-1.5322024273283306,0.6010696173167697,1.4752149358216156,0.34044261165179024,6.648215971397231,-4.8076502775719305,0.4973133088805406,-0.850370532363787,1.1374523336187796,0.5269026810792216,1.4257335387085923,-4.850196662358009,0.49916037310987815,4.5784769088001545,0.47952037757390575,0.22958421497873346,-2.9422413968114673,4.509583745120819,0.9063425522439013,1.4524101562770857,4.299761549513187,0.3293251971185768,-1.6958196878669407,2.165105862547362,-0.8858143357031137,0.24158266738469197,-0.9634940771388869,-0.7863141724788274,1.3879386991480132,-0.7305028454805702,-0.36300548632769386,0.836133440388677,0.4539365115577771,1.2628584327897034,-1.203418846484734,0.43643222103211565,-0.6478457997429655,-1.0248673186545838,1.3691891725091672,2.741262683675713,2.187044186175395,2.646982300616174,-1.2905027184463806,0.5101526980766756,-2.087283503760412,0.64673987506629,-0.2601863863460655,-0.049847906392981985,-0.04958180296114358,0.6880030572536782,1.8137832375521654,3.542721249930444,-1.007324502290279,-0.9689455155183141,2.053409985254575,0.8052211583855158,3.6942537347006783,-5.492318251522601,-0.3332406008109837,-0.7934201237959219,2.1453906859501877,0.12627711672305408,-0.9673293877998179,0.7917031426981105,1.2635677661899025,-0.8309531435613018,1.438043415100389,4.2763794951350595,0.7687575133040218,2.581187428440365,-0.5288736572526795,2.9839783201012176,1.722728895141695,5.605888010688683,-1.1789383887208764,2.7904258623861997,2.690088811569314,-1.1276799333733178,2.186698140591979,-0.6478629744521129,1.93268788477032,-0.014684633174770654,-0.8664926798744715,-1.7417938082893434,2.1043711030844716,2.277063456563866,-3.493760920586177,-0.9035357149647624,-1.4483108445368906,0.5108299861506701,0.689231834590927,-5.8070363490624,-0.14615561742820946,5.388828249152713,0.5548311901922376,2.418549435708639,0.25825983445276174,-0.6993573924076074,0.09548250337387863,1.059689562473744,0.3876886167825918,-4.439165968487041,0.9041829700091287,0.5186305102809743,-2.1727516539405523,1.0595450059722786,3.471433094037519,-0.14241261551456386,-4.335170708228361,2.8908810436852828,3.760319300735377,4.379120276147596,4.872225650020748,-0.8463364269235238,-0.6176479455538288,-0.8491855885138256,0.5603668569432249,0.6027725035747661,0.13097152117376187,-0.040779333401914926,-0.8401231593394619,-0.8183479627696176,-2.08129377953346,3.4259759321222174,1.0497274598447806,1.781247730398958,3.870037015320497,-2.7603786862123463,3.184997401882469,3.1490157682540647,1.3881112003326648,3.713161958197511,-0.38472562272631167,0.47197402406735034,-0.037962196442136616,0.11819069279882265,0.4697084209654646,-3.9818790667054587,0.8702460730064153,0.5696090782810594,-3.559562561825585,-3.995890899603625,-2.169583560322852,2.5398153702293276,2.6648744722069178,3.723588950278461,-0.45350356535755,2.9434444540382168,0.534936019388947,7.903382004065631,0.713017445860487,-1.5890340870322812,-1.0224956503635865,1.1622322747561034,-0.6664817481427239,-0.2653617344908349,0.41898420660221153,-3.0817552708353007,-0.9713775983161823,2.459462869025405,-1.9649722268875527,-0.6354374805455705,-4.058767201816307,-0.5765715919385325,3.0879344743713593,-3.8138802321872296,-1.0730027439217047,4.124973572808657,-1.7320885826939858,-1.388643335646828,0.5774843092636277,0.3805684562439779,0.5409532343106324,0.950115989238462,0.2731100961138537,-2.1149476101334734,-1.365513380939425,1.567600939836865,3.8267141647959635,-0.596367758826004,2.204979053910185,-2.2103164229422805,-4.385628747093166,2.230013642734177,-0.6792568870688215,2.8189886869257506,-0.3677736399481697,-2.3914725576406775,-8.865944475731663],[-2.798792529684345,0.26387091342458247,0.427566320141921,-0.22118177873731049,1.7457411114437633,-0.5612102928849139,0.023400537598344366,1.0222257661638203,3.4484906840277896,1.2034142438250106,-0.8866210101520263,0.2664904753696393,4.094196225179328,2.295314137795241,-4.1181405778028415,5.53885036027734,0.8732770091998552,-2.6597274756381197,0.8222813100386297,-0.15372587736343335,-5.378183708889177,3.2656793225933383,0.9242480366626368,-7.920946824512033,-3.798237726189867,2.8372102835073796,-2.293868758270322,6.111184637604771,2.409375500279272,0.7650907043503357,-2.6385188285462355,0.0959747318117191,-2.211847102598563,-4.493413542367674,-0.48511118006721576,0.14446332219069966,-1.258809431184693,-0.2711755093825923,-0.0607230220027652,0.08189929281614504,-0.414356028162494,6.625231845166353,0.05703266903937526,1.3800596500301767,5.942207789957219,0.4263475260774791,5.192531526140418,-2.3449476273881222,3.286615710222542,0.11794985731154559,-1.8126517547919117,-5.084255348439851,-1.6840510181635044,-1.5803491399867742,0.7798674304267463,0.3776225507803459,0.8179806898661565,0.5569605880151427,0.11656162621709659,4.180706357259571,-3.338871728333156,2.1226909178638755,-7.170892490882003,-1.5166113866334876,0.9157570319175073,-1.2411478503402613,1.5937834837990839,-4.4880946474119225,-4.332468652775536,1.1607509756578724,0.06587530441139015,0.9245740339122829,-0.15206640266282045,-1.800854180859229,1.0221456871313677,-0.9746611898291521,0.3057129610441527,-3.863062657868086,4.464308299821388,-2.3785980644042275,-11.568219232837308,-2.747182310766758,0.25658602835738276,-2.2738012943630745,-0.14428438775660288,-0.380736548180903,0.6172792889700716,0.12819981018599474,0.36896855952982166,1.0999776336398155,0.06979262443131705,-0.7033195517761186,1.1553217279518118,-0.23994210400684757,0.5263430835821078,-3.9104383215685092,2.3988090807507394,-2.1406196232811068,1.4074791562061355,0.012001238879584077,3.2986951744865123,-5.306405858211265,-5.872386560853637,2.0796463112344097,-3.8867377964720387,-3.0415260904717645,-0.6450216148546459,-1.657739054685561,-0.1948826767888137,-7.068277177266247,0.3829791460494558,2.034100518873321,0.5088746430724265,4.113533875597848,-4.261390398011987,1.6496355933290143,1.567797306502849,-6.326595093451081,-4.199741811576836,-4.903157246776491,-5.238678861596487,3.9751501604552586,5.243170663859595,-6.000646879130375,0.05517396869170155,-1.4431737559856785,-0.6835607666699999,-0.38859212659215653,0.621098359388008,-0.6355146208650886,-3.808382685507739,0.3481949695683272,-0.39439633010031644,-0.01064307663631576,-5.09563081838129,-0.6656251190112028,-2.0896331155145584,1.126906999174358,4.313312390448821,0.11235046992410377,2.052793877233737,-2.513361803998032,1.709334665283932,-2.512596887605299,0.4082937471832834,0.19526736918000587,0.4982808151763968,-5.648488363376762,6.8551699570638185,8.356781001434038,0.39226288006079996,-0.22990401394213844,-5.13564842157388,-0.2678097814234137,0.8380413712942882,-2.286036762811403,0.7515303104197492,3.5675944388059775,3.4618031154110778,-3.1411105387583476,1.9980568879734302,-5.1073983439085975,-2.325533801526941,0.1265183216103311,-1.0952858928247322,0.5213010742913999,-4.0622572943862005,-0.007842107071873187,0.4992529871780698,5.875051625432118,0.8316177727105848,-0.44686382699318183,7.8616746780992885,-2.2790769567415796,-1.6770517480649754,-0.8047390359220327,0.764769810336171,0.5965304289410033,0.5015763980627642,-0.20620389850249965,-0.835066890532476,-0.1911430831744646,-0.4472807280302701,1.102597895541379,-2.8483374581242265,4.647264225654937,-6.330486327475053,-3.4518273452927932,2.6808676623917784,2.2704973812708484,-1.8431296966391162,-3.155021294659121,0.9151297541509646,1.0798403507638217,1.0824840048020337,4.132864455544607,0.05178473284081719,1.0693049806469657,2.0795625910729814],[0.2750449037131387,3.456896478629056,-0.915294388487985,0.14355610538703056,-3.435860123637564,1.0908863149002521,2.022690065486942,-0.6160038138255685,-0.591126748839365,1.137652963898495,1.818244459695461,-7.20143536142766,-0.2991609697770668,2.006887147746511,12.355636672410421,5.9477867011485595,-0.7038807823973576,-4.0195671043002354,-0.32772138567443376,-0.13344514781807315,3.2947145079358373,-4.28315355756031,-0.023602683759166528,-0.1579119746066125,-5.566572041145446,4.109476092044907,-4.4886554557624185,6.986849962409819,-1.7642851778671618,-6.364997504485123,2.617322455681091,-0.37082037678098145,-0.4087288592021531,4.280274002425625,-1.3071057320552508,1.8830606889807247,1.0660467270635376,-0.6755000877004791,1.0468847906201841,-2.4266550054233518,-2.832657865917973,2.403391820603264,-2.4307452076886626,8.280563827007159,2.0606569739424683,4.089747437460851,-5.441264425263166,-4.09328703753584,0.7709365202472427,-4.703131916268656,-3.4095250966848507,2.149302858718242,-0.8150665345643621,-2.7510132322136944,0.2735681119501421,0.8683159198652315,2.573426064198368,-1.5470739308318262,-0.9836593410734145,1.71454957240971,5.2197536513189435,-5.648853307197859,4.5260164907444445,1.2907938081293053,1.5867229673551748,2.755604331851095,3.4248513914270045,-6.350821582710263,-1.6317925877415909,5.528860324816094,-3.228215605783443,-4.624222371513679,1.285311727775326,0.19473562902247513,-0.9033353113022412,0.8573521082398017,-0.8046707487243885,4.218252821170048,-2.860246892371484,2.1040781971681275,-4.564026798314329,-2.762416963726909,1.8385599457244997,1.5585185172792035,-0.36984395154335137,-2.8910143233530223,4.137172942846521,7.116711607038053,1.8929228108436118,0.8439722273858553,0.33719162032493144,-0.01201272542315938,-0.7881170761554985,0.853021553512864,-2.92598114386783,-5.619524747435545,5.1204485803342825,1.3965133311872704,-2.6702759277655024,-0.5548408371187551,-0.33737888366902224,-1.7475843282186798,6.342760782079248,6.1030381593331695,-2.3409143121461273,4.631032015874639,-2.1499688883332033,1.3643131648913693,0.18238495520313647,-2.312212783797925,-0.4363279655098873,6.133233770449905,0.9935141828645067,-2.4817814112762533,-1.7660504660073955,-2.264371459246869,3.8475783721956622,-6.6073675447694615,-0.8933353670064714,-2.0375443760483307,2.042897162171649,-4.537392974838768,0.9554890958061738,-6.647011471003283,3.596096743336431,-1.0303758101051443,1.0704984890699356,-0.6689189691342179,0.051983759687711566,-1.5302393201699782,6.036919116690008,0.07747999982039742,-4.451759289012152,3.7337955164304044,2.019092092165454,1.0868484867130488,0.03193034113854941,9.732614406799907,-0.7244988919966701,-1.190129781277209,-5.842486509819967,0.6794330907044002,-1.7990332118191594,0.9872920532722803,-0.05886044913546252,0.26986624680685023,0.41828242223916745,4.965177254365081,-1.4962818053421436,-3.182657729626038,5.045575007771102,-2.8957099420379016,-3.1521183505213086,3.9365135837614402,-6.4008096518831055,3.1307137637269484,-1.7450094549270085,-5.734485182967112,1.3120594783343176,-4.179283695324688,1.425926606662587,1.7230094042742794,-0.4447023677135006,-3.854021059573203,-0.09947117281337416,-0.5901725576291124,1.95543656253182,4.346601396042842,-5.852118228255516,7.26492885069592,-3.453633175417309,5.09325112690093,-3.937910636901602,0.7157651063159359,0.9039265997549657,0.4008459924403627,-0.31924868667072087,13.921894771622574,-0.7625272770964637,-0.2558978103549096,0.5731472908391326,0.7550465927191896,-0.781867537193624,-1.16350048379825,0.5093367771533629,-4.473036585497157,-0.023889397699790666,3.0439933571306406,-0.6078469186870906,-6.468895639764617,-0.5992686226260018,-7.385896149282782,14.304869649160246,-0.8880116820458804,-0.29555615456343776,-1.7440254852010395,1.8897552717756805,-6.25355588566769,1.198259497238058],[3.506650551477359,0.12515827692487602,0.7631084059663852,-1.4950776925885672,-3.577304615260016,0.29690287877652793,-0.03398965381133135,-0.18330794144529916,-1.5013409516839022,0.7278203547619249,3.8973895874963773,-2.496330891318229,0.9025619128927462,-4.796281078606998,-2.4976324276605846,9.02190060820536,0.0327274030254776,2.2680560985937364,0.391059216653981,0.4597139132007561,5.52945577038292,0.8284753904385775,1.6157529520250635,-0.28738120948975554,-9.101529105371993,4.391763422285075,0.7580499322605152,1.3936248111133256,3.085001769874681,-5.043415002919595,1.1033175903861059,1.2174232656622328,0.06741020411001385,4.146643231504723,-3.335720635075111,-8.61344217525798,-0.805215509625169,-1.113290924285472,0.018145476401703546,2.1651961312026797,1.2450104377934927,-3.2141404308181607,3.6164423772452334,-0.7493297386034559,-1.7435858853867248,-1.1176072300255722,5.003509379099684,0.7462958195954982,-0.29686783187140103,-3.8151212520061506,-1.3089478381257298,1.1176751323490828,0.97883045059344,1.3478195206912127,1.9976605332267712,-1.140272899097416,2.7954004305092486,-0.35665262966025746,5.828262134767762,0.6989700756756232,-1.5982430979441635,-0.3523024846798549,-4.859411346740917,-0.43450003253661224,-0.791916141984521,-1.747668337382889,1.7918949589747821,-1.7114580271308348,-2.6462634053064824,2.548896390903865,5.927691905678259,0.8648731107234479,1.3020344991878958,0.808515186976094,0.7343371698132364,-1.3743143545951568,-1.7537719158922618,-1.4573216187406846,-4.109824676988676,2.1755160417050066,0.5091123634986561,1.8260147383615628,1.111555588415505,1.8174592408862484,-0.01870943689215706,-4.452432594066283,2.3539209672019816,-1.2057088928162436,-0.3616389404270371,0.7413928327237341,-0.6622326751030845,-1.7036434724609921,-1.6538413194305377,1.4609185641687399,-0.1294780518969061,1.2411001724124657,0.05778100985984558,4.015597959138382,-4.193267137885748,-0.3716912227620921,-2.5550891846865817,4.407317991998394,-1.6830382365752985,2.6931352760721636,4.124340905679048,2.4123469386225533,-0.6960338811799486,-0.32670186700452897,-0.35409107122806205,-5.329405156025116,0.6238944674004636,2.805375794692722,0.6200211472613382,5.8133072563944,6.3355755836592,-0.6141107125200855,2.4073728997617443,-3.0254207229299754,0.5298087176138632,4.729578369398462,3.0613342955999787,0.030279775212479355,3.5118702660389793,-3.1717460879467185,0.7456540077140036,-3.7199635242832327,-0.8840125508836472,0.780749727680702,0.417845024291465,0.8746945173708847,2.5209790997661385,0.5464225443917283,-6.586128763495215,1.030410481520582,-2.895019663030147,1.7896436580145667,0.5602861601194079,-2.5266493991436625,5.2158466172447335,-3.1942825523815044,4.1411041579811965,-2.5111843804127143,0.887843859334933,5.281986145269914,-0.38473287082401525,-0.34064290323561286,-0.13067188861811085,-3.965500783931551,4.552866147393043,0.6958118655047569,-2.6119703444442197,-2.5845176147719178,-3.912862126233629,3.2345249114127466,5.896197378394751,0.03773496597762643,4.949839982415215,-2.336994831460276,-5.791744137322824,-0.7968495989198249,-0.3950996252435448,-0.7537333471591801,-0.5353053505900904,2.466679817517033,0.1395470235625379,-0.4778542208493336,1.4240252290056707,-2.502112952483266,0.9476845056118436,2.4641113512906254,5.2257560764418844,-0.7367333480773298,-2.790869065264012,-1.3279120199691115,2.0345606404926437,-4.827541212222312,0.47501023480716786,-0.8917928442512909,-1.8870077324241736,-1.0203487355891894,-0.15681063326772243,0.16264683325443424,-1.0119858098327532,0.7244994621462779,0.9802130460253169,5.942899715120557,-4.7887783131787724,5.747156568504866,-5.761703825515906,-3.135702051760221,-5.3837263699563485,6.778558051117802,5.239340622339399,3.7322898151891444,1.4832265140030716,-1.878172812741939,-0.605303131180279,-1.7487421389972873,-2.5255987891275304],[-0.06374108248475205,-1.6123649732972238,0.47649837765211367,1.2069477790817131,-1.792795530510468,0.7573059832251615,-1.2491250013417703,2.84744044940767,-7.296970726112657,-1.572512398670348,-7.908961787283508,0.8226945809264977,-6.259408874750409,0.5987342209538155,3.8993516836179793,-4.5405013015517675,1.7103082712120365,-2.0911571622613616,-0.49818475766943326,-0.904330924566823,0.7535042019134464,0.42830732001336935,-0.2644732683127998,-3.1485303525324317,1.9357937893385802,2.753630122268256,1.8230045903472196,2.080781770964689,3.845505961956358,2.1128261755350692,1.6733536177805648,1.1295503900991009,1.4766779965569343,0.15180543858130055,-0.7022593504085914,-3.1358244661381245,-0.19321033713075614,0.2567762176033421,0.6319672541291477,0.005356625198106304,-1.424441528258419,7.295355875049274,-1.856271440288383,1.8746482958137953,-1.7498420471861669,0.09621576949375445,-5.347238919308711,-1.603411998567898,4.578545501643071,-2.658781917553797,-3.143634097039766,3.6377721970271315,1.3570041077481314,0.6671501739821735,-0.22991561942840621,0.7934457021194472,-2.5687539777374173,-0.016612031357160335,-0.3060226810323712,-1.947694728609057,-4.417734256559339,1.5470690023991172,0.31429449036757773,-0.8324959361493116,2.363127804524278,-2.450163161749326,-0.8067593389244712,-1.6743551249712654,-2.098316692821518,-0.8740768455789122,-2.0511283759942827,-3.7723341839073927,1.5356339032493629,0.637758123783523,-0.5268661900607353,-0.3109932800320925,-1.8918432679774935,5.22201544041646,5.985047616652864,4.068153780270771,-1.3539467936530345,0.48826833777287454,2.3791352052749892,-1.1398486983966059,-1.8146694867625872,4.48574093265831,-4.390599365163287,-0.28086334543051983,-0.43548904341961225,1.4880872817868087,1.5247306075370604,-0.15921208870000203,-0.2680207892384494,-0.47079767775683345,2.7206203055936435,3.8298191870775233,-1.7287745550869227,1.730783789112929,-0.8028121688294992,0.05855866536527938,1.8097934350827145,-1.8108571057889522,-0.1019608992329889,0.20424309731596754,2.913522032001379,-3.4485783718516196,0.4844794827649345,-1.3069857923828068,1.2747155696596606,0.1137602179340496,-0.8764073123022101,0.1805543622252965,0.5909640820536477,0.11510459393425773,4.331034619587881,-2.0179224538375764,3.6927441541244264,2.6522170314740947,-2.4518420902594777,-1.6276338063896234,-1.0855405658011092,2.8129191696799745,0.795931376002699,-2.711814458657096,0.872798850337103,5.10999366325197,1.3798822431887023,-1.2502484868106352,0.32586609511945785,0.7836418575186003,-0.43530456529895734,2.5645684978766052,-2.6816477668267695,-0.7366174224654083,4.934926027760992,0.4652890619781252,0.8554245808628168,2.5455124388471333,-2.443393557514983,2.6203205829274547,3.501163630061189,-2.321645528789638,0.6670032245710209,-2.012888763382759,-1.0095920768127242,-2.4961030218688496,0.5621528534983051,-3.3251745028083555,-4.010722632874737,1.8573372753122241,-5.323534564464225,0.6207329287511316,4.600880302623069,4.159607088814853,1.3852407098371309,5.331654136921278,-3.6315479952662844,1.6396422899551666,-1.264819494275363,1.031443151731361,-2.0452147058822003,-1.1421004975516516,-0.5738194771634867,1.6078359500066948,-0.6048273559574779,-0.19637763374061112,-1.2074766886840274,1.334184173994861,-1.9209896129866082,0.25843051521580684,-5.858211774106681,2.426163111735988,3.2600053177016233,-0.8546479356823603,2.467214761703984,-1.0993787639029406,2.140636575460067,-2.6704962616062957,-0.6829936387865355,-1.0691486454315606,1.6484801750636677,-0.2908943351689169,0.8273610423903002,-1.6799258530585222,1.1566447355825433,3.8072363372572995,4.408391053459731,-2.085012128248505,6.901455005229202,-2.147715731573029,9.302829712533333,1.6495427955273896,-3.8350648752875522,-0.5817538881920711,0.44803195291995757,-2.2584167391501317,0.37136614617388214,-3.705499513797429,-1.8581602936052193],[-2.7981605161499794,-0.4058311961457136,-0.062106157581263595,2.523019373069828,1.3906637804673894,1.7730814096818048,0.42684552089581773,-2.0415034362575644,-1.7784917571334795,-0.44113270384573944,-0.5498152154996746,8.895298922050248,1.4318494642271797,1.426853072266213,-3.652277061353032,-2.72342476089499,0.7549632532421704,0.14842681974727182,-0.6266530040961608,-0.39109096236124485,2.8893680165542412,-3.2216286053095566,0.9828769188079747,-6.795154591440812,-2.908603122142561,-0.6353934567705899,-3.896371077783298,-5.631022308649276,3.4914987277184464,-1.5823924834117626,-0.42980982146041014,-2.0031718879929397,1.9021115939116497,-0.0008290002350920237,1.9758738496707793,4.273361715407545,-2.2625228567222324,0.4888298985634876,-0.6758083277068412,-0.9689271024630675,-3.9417623856808794,0.5189636128721193,-2.6301795467377254,-0.32021731033392964,4.213083472967542,1.0047994308317563,-0.3137839728600358,-6.015306941215549,0.423264119817817,-3.3940739622048777,-2.5164500601777013,-4.943772191409579,0.7942753342670678,-0.9465759117722284,0.5455453666088746,-0.18897032930757773,2.618403761781468,0.2373379922801082,1.9319955827826656,-0.38059180421282274,0.672360410570315,-0.8407210779154412,-3.898428244289528,0.8746293232606213,-1.842937395794403,-13.123779028890745,-1.721699876343985,3.5558125972667325,-0.7996631977118308,1.5948562400839195,-2.5189479853700414,0.058415295914574,0.31754267788837287,-1.2207548177142216,0.373153722323508,0.6622209549546126,-0.8038407818020973,-3.580426957430852,0.952357644247839,-1.0133945177940111,-0.0645498177150263,1.4821350998827272,-4.3425033107513284,-4.8360678486803605,1.3369121089624758,-1.3238949644153875,-1.2696176071739047,1.1018529284612935,0.0011495984562137542,1.8596638305232427,0.9052061220039658,-0.30112200474322715,1.0235219702336569,-0.6619605641038173,0.31631062096479645,-0.9847062837806767,-0.4049765479747813,-0.033407362590478086,0.49886504814364313,-2.327071539862174,-7.947077487677201,-2.9368302564912527,1.7803060360916692,1.6645567593742172,0.9341114058382579,-0.7521449625568375,-0.0880371039566852,-0.06256077236154912,-0.38031596210186147,-0.09824616891893749,2.1849358591323935,-0.46109321731722197,1.0346103140058647,1.1261112614621382,4.238977821477134,-1.3006339601836132,-2.3712053063818375,0.6726024816666043,0.9941932671256202,-1.1265426776674508,-2.9029971824744374,1.5499115009411957,-2.9486175396225835,-3.07928404473237,-5.966199310535552,-1.901706564902229,0.4779493123999585,1.0218786896854881,0.5078047453963807,-1.5292901973027884,4.719958913297906,0.7704446660368974,-4.005510396866356,1.787084174695371,0.07248996977773792,-4.630114827100388,-1.2631175227417237,0.6324415269553982,-2.897064360463474,5.864498790336528,4.321974207908999,-3.112105554384273,0.4201854105242278,-1.7991404612037056,1.9203822394697239,1.2123197322322279,0.6293205169748645,0.519231733397827,-4.231182108401294,3.8962805397877522,3.6965561130001974,5.884316299370168,5.036722924006319,-9.007434688688646,-4.746307939343357,-2.330454094293374,-2.904703845067931,2.63839134692366,0.19944225933990087,-2.361342641947951,0.5946347408473512,1.5779915267649944,0.1800894529103586,-2.7968300126082792,-1.1295521930539085,0.09599102959614068,-0.6549926275335743,-6.897340651657699,-10.104592222380363,-0.968992974745624,-0.30379907892495767,-4.342023373512963,-2.0858788834660227,-2.8177330228932638,0.4919688687062399,-15.672975632155259,-0.7551234308413255,0.8543542582184128,1.5181840915056146,-0.04208735138124648,-0.4015109000806252,-0.8796244237858823,0.9900324421513951,0.5825861363037232,0.3822627191765539,0.21017327977589323,1.7544412331312718,3.527941377777141,-13.316537106117817,-2.6917112531057263,0.859786469360585,1.4859629193292494,-6.935796643199775,2.652586029121536,-0.8291111334515588,6.053628692535159,-0.3222270590865413,0.06719877085433837,-2.6042934611611597],[-0.36387504416239724,0.25353260732593286,-1.5663562441814625,0.4654429748557728,-2.6943991001585195,0.2762488021651728,-0.34946830221612235,0.9142165788271269,0.1945483419109225,-0.7415295564865626,-8.761657956547962,-7.5094683688273,2.7058948523234343,1.227457199768623,-8.153413993112235,-1.8327023707050645,0.20340227592079252,-0.7683378085562442,-1.0439354284011257,-0.20954398645016226,-1.1899278052919589,-3.4388188294272966,-1.225037109069581,-1.0042493913618038,-3.3245414970941907,0.8389804979017602,-5.433387845209917,-5.761638044061888,4.897877462847787,3.874089115382307,3.2095397523458344,-0.6358109065292624,2.9927619453371945,-3.697067725148848,0.16335757054092473,1.0660058942658885,-0.6178541607499309,-2.327231951758806,0.8878790690121641,-1.0102731626926766,-3.7199194138339684,1.4090194351740015,1.3889808550261356,-1.0236223727665865,-1.9334922888883,1.963210760480044,2.902821291351254,-0.2587257501168162,1.277052042254086,0.4506950926532342,-3.203314307812554,2.9660281064122556,-2.1807087781569026,-7.576395931085032,0.4933500912361765,-0.24661531204096754,-0.4161085606797017,-0.49160074501702844,0.20154371951383868,-2.1529390877919363,-1.1394382366100584,1.1622616497940994,-3.453356978064475,-1.4791224289920042,-3.082371359840056,1.8725186735749122,-6.739377242519466,5.642335179090495,-1.7732986748544945,-4.415464681114309,-5.866805968499483,-2.193759233600241,-0.36582520424321574,0.16011643242129958,-0.5305653707270652,-1.4200542226953494,1.0713954625853865,4.326869602879505,3.5349593535628787,-0.3177830473542805,-0.3531008925085328,-0.9235932290790222,4.025803628556774,-0.5207147762855664,-1.5287168174850037,-0.4104776980760189,-4.013327783436614,-2.5150925460407274,0.676263250783817,-1.6914823700877764,0.18080289568642904,0.5265187613206088,-0.39611631395626845,-0.19198077109723366,-2.732927296683573,3.334689005339529,2.802530171329219,3.761679123889469,-2.9710347024152224,-2.634089170233882,2.887449182454919,-6.101825412834564,2.1091242319945085,0.2134563079017498,-3.0977128201462927,-2.5300264527027325,-0.5501208295818957,-0.07718479133701074,-0.18064289025064262,-1.5722103085439727,-1.405550843763794,-5.790590396727593,-0.07574617269290364,-2.633029639108375,-1.5295331421323353,-0.4714885142634405,4.1223530166130535,2.282279323866501,-0.4873638407578626,-0.48485913159508054,2.494829240758686,-3.5668364943875828,-5.4666076718322465,3.9768178324802856,-2.5403252937957195,-3.195356977873489,1.0986351614253935,-0.7664659203798647,1.038451128566097,-0.1029507834852106,1.0443533777333232,-1.5273020976221232,-7.615692505470417,0.797603839585868,2.1382589685674427,1.676554094412327,0.17765822747717194,-1.4074953891797393,-2.789735779392221,-3.8884277522576975,1.9427025745479973,-6.716270295252758,-0.21444541994343824,3.6001975085087476,-0.24131405241040027,0.8620403146387383,-0.17158782864486638,-3.2344710217096337,-2.9991893666269602,-3.406135697718664,-1.23287935775719,-0.49889786751209925,2.209290340468289,-3.0565920743873254,0.16019396157905905,1.2229872032076274,1.8677267758771912,1.0512907687258524,-5.25704090157442,-4.014644693894241,0.937281713367956,-3.120758938876938,-1.31353864057555,7.002883369667992,-1.7798180526379703,1.7221841569668455,-2.9413262769497006,3.8213701224394,-0.31191811652450613,1.5232871558860441,0.14316511962215014,-5.410998755175428,0.43336505400555025,2.4818844191781806,2.2899834310656177,-4.888274033083272,-0.45505866399570494,1.3871217840574737,1.8639134833365223,-0.8128241159403773,0.45083271874287445,-0.6789739388321309,-0.26306684062636376,-1.3410995122133669,0.9576180060868476,3.678916306900355,-1.4830017419390518,-2.8670721183885313,-0.45689622544111586,-0.25193779808672495,-8.148952233529124,2.5445275494646373,-5.652292744370323,-5.271084688729445,-0.4801871709463852,-4.116925451075945,0.6391611193961568,-2.7969351488825884,2.3844122936490475],[-4.576416544950107,0.20444363404914645,-0.5305863117961445,-1.1093358578764276,-2.203893443698676,-0.15466035500101138,-1.0372971843370704,0.4776966112724632,-3.4019152212137724,-3.399115849444127,-0.9975264958568381,0.24558152200131672,4.402455678334071,0.01726200537943688,-0.8337093959287768,-3.6073406388243394,0.7696432268786596,-3.1955243880039736,0.9529630364824944,-1.058821330818089,3.627184791586714,-1.4139600555730976,0.15619667075939814,-1.085589262720664,-1.110556501982333,-2.5756863864909447,0.6711714003468159,0.8782581271086325,5.523044528350822,-3.1701302134022304,-4.060276502956714,-0.9820282185399718,-2.0411909083472635,-0.16488632078103607,0.781739190400414,-2.4534323255346204,-0.01654458016217753,1.145206128810736,-0.08696343061989444,0.8862067765511126,1.2959432437323068,2.23292991787463,5.771275979353846,3.162641691895832,-4.940272809532023,0.8592432796757197,-3.1194210394652826,-0.9176430399214959,-0.5538099086486189,0.5649766782713589,-1.3741545090750316,-1.1507517106605654,0.0727990773576808,-0.7074359606758337,0.8924117079298091,0.3868679027037203,-0.06384566870160371,0.16947944284246064,1.315295600974891,0.7402657402283187,3.8385283769453187,-2.8339964516565024,4.313355195631886,-7.678443222652304,-6.084629386706,-3.3585076001637644,1.9084127968323086,6.2040028391064705,-3.4972465946414983,-4.7867185368797,-4.876214677777469,2.2910781691393525,1.838917088380623,1.1158086064591421,1.3013367925671007,-1.0041605730820773,-0.3951098392194652,-0.6402702962430639,-5.139780004707829,-5.8434722285393965,-5.775938745755855,-2.626564959359092,-7.432957503411849,0.21370886972075245,-0.7768177760467896,-5.8732275583635545,-2.1185208266161095,-0.38411954818166155,-0.11481955151183439,-1.9681813708019724,-0.1537950232273626,0.5780988237768825,0.666587902133115,0.08190411641644633,-0.16370035312808795,-2.2906477889293306,-2.2496505193473375,0.6673268072291951,1.6805162669065128,1.891351410113368,-5.170015033307559,4.7414394744345945,-4.883565362155698,2.4905874387336184,1.0480914131573154,3.8013321638210478,-0.5557736670716268,0.8124791568320064,1.7488963602763292,-1.5060520469654377,-0.20065507208080674,-1.508730945773336,1.5573277699360208,-0.915460679773125,4.55217953910577,-4.849771140164284,2.6774114340530235,1.1252223250310887,2.963227925564388,7.928320353541915,2.570892118169683,-4.177602158901285,3.059375094905206,2.8287320842252504,4.202017656131951,-0.09262533974874884,-1.0445348129343002,-0.3398741142121682,0.12318169818644335,-0.7350557357803031,0.9879907392740149,0.313522995187776,-6.707666871859982,-1.8270702896622961,1.0020836160212905,-0.9554442849045376,0.935005356221994,-3.416097199475096,-0.11912112001144706,-1.6313353726829876,0.3941022275739212,1.6204792505565482,0.49559273450864016,2.0027043795118877,0.5810604972951339,0.69466494835554,-1.1367072150804076,-2.5410045093749796,-5.382524025486891,-3.2893093710442636,-4.378643863365786,-7.734694254704958,0.8869122672694484,-11.563285745684567,-2.3488986923618476,2.504467382203488,-0.9410713666563811,-7.941150806725299,0.7951386292890656,-3.7221994106584853,-1.6489095942918226,-2.0327849788167396,0.886152207249094,1.7237426299810095,0.26807475035067385,-0.8903080162162478,-4.378946925567366,3.0657541424852495,0.6970430612373221,8.256795175674121,-0.17710395758223693,-1.1651726042815505,0.9301181750104808,-6.231237562085388,-5.781701046422271,-3.070205707775475,-0.6307417553030175,0.7539388458766956,0.13469368845534793,-0.784362704463699,-0.18367690047619437,-0.0650855439204281,-0.7984826811439958,-0.5007311995458557,-0.8574940671752076,4.427062213641224,2.3120620683179465,0.7117565988953987,-3.088355259929187,-0.17067429221297092,1.444970610591039,-2.773721771655619,-3.594851356332922,-2.919893504939617,1.8294509123659675,-5.465507414285229,0.7129762400752001,1.3536459905013898,1.9825313238185516],[1.2879436120318375,-0.6714825729563426,-0.6383039621665078,-0.208472490873843,-0.7642282748826291,-0.11557925321022662,0.7031761151316138,1.818560109134719,-2.8370825094987313,-14.720788104334066,-2.5862736902860504,-14.989205373808419,-0.3065918143084099,1.1731397907642556,-1.424957850756558,-7.4116189114829005,-0.7987061430056064,-1.0371150130060713,1.1269510229586366,0.31015714152090806,4.501872496042545,-5.517689787453641,-0.9338089473864156,1.6605219871536565,-3.685459063541688,-0.41733278803407475,-4.63012223398304,-4.55535535789763,-0.4743730952068614,4.151802068477612,-3.396472302178827,-0.1727838229993603,3.282320596144256,1.803169411307644,0.38037834414458443,0.012981260307820394,-0.036765162152969495,-0.844797202979749,0.6297313513844447,-0.07229120483206718,-1.1582263128702825,4.512421291605079,-14.872591962050464,0.14350660860160622,-4.1279376759992035,-3.243146306450864,3.1701609313832213,0.8865562701359004,-2.375659900175304,-0.5550847781539857,3.4881705839701285,-8.437535421793388,0.44866929669030997,-2.718401969081461,-1.686319516918517,1.186630684572023,-2.2609337571605703,-0.9903540847254841,0.3089446419330008,-3.2077144012676326,-1.4289820120977486,0.7240249563652446,-1.1934772993200444,-15.660415950325005,-4.474620283268723,-7.2019906382712735,-1.8384774668499302,0.7790415968844757,-2.420213915105168,-0.37104900580117933,-4.100141924970628,0.4375113881924063,0.5006116797317495,-0.9666799873412102,-1.879079093483308,0.42293785226029856,-0.5832724805214846,-0.1454255557118249,0.9561752235496408,1.586474113080186,-0.20100561630662342,-0.13361984811530558,-0.9348194268324362,-5.155660410037499,-3.483513518860635,-1.6011729012065279,0.5850938541383838,2.205323812672661,-0.12957869833433994,-1.793308396411393,0.5556040632005222,-0.7558502356193788,0.8453701250391421,-0.1872004714059301,2.938583882529503,4.268258574393787,-1.9985931582369734,-10.057094893972222,-4.904069525543974,0.04353299953411374,-1.2873961239577407,-0.7187158148051853,-7.228235738982618,-2.456742033652701,-0.03856190374684175,4.675004513750203,0.6670007201869643,-0.4286041823669928,-0.7433126203873308,-1.8602545456881132,1.1542271537460256,0.3479201372255038,-0.4074483597134593,1.2799621949619298,-8.103521636454744,1.2028932873901848,1.1622389712767258,-2.712780695153368,5.999207095770947,-5.252968967823926,-1.1628141788435638,-0.2922410396123037,3.843880737970278,3.2804269767842587,1.617507902778182,-0.5412158650989093,-2.2275638135209057,-0.8054058142410967,1.7515875800908443,0.18276796858222658,7.7136148601574845,-0.31512304605103625,0.001383019262203871,2.426207613634215,0.854504872345766,-1.5527486494734,-4.251375635729911,2.7309993635882583,-3.3702791987154024,-1.9912808572904048,2.141249654798536,-2.3648816248132207,0.9465468454755184,-4.64082539233101,1.3822879394639103,1.4410227994732707,0.47020492757944676,0.07578779007046364,3.0513540944999242,-0.7028427416138558,0.959757236268539,-4.653569005814679,0.4218307711416659,-0.6948195588663653,-2.4741627407081523,-1.9558661599297986,-4.340060547757642,1.0127723307394867,3.547012833489063,6.949228401344336,0.5944759649962023,-2.773384733552876,0.8872206939812266,2.164366315641959,0.5609729745205992,-0.8428680622143973,1.0013209944942805,-8.39742578287596,1.8236020822305439,4.959506050221255,-2.258924786781187,-11.442890574067691,-2.0787230292719636,-0.5844007411961759,-3.1119985460915918,-4.734006212125927,0.8181372354275324,-0.6111826604007857,-0.47020865025644115,-0.7533173750562663,-0.5267315560862122,-0.08004743022853723,0.3751491122753283,-0.3379336146357359,-3.400063460896409,-5.396572839321204,-0.5088958053547511,5.8409084882980595,3.877912780918521,3.03844002511446,-1.056096752402623,2.9220632899309127,-1.18257897971967,-1.921199971798445,-0.25086424470760543,0.5848135202074374,0.06205186172814354,-2.1797917304125436,-4.111824154600274],[1.8828004035240933,-0.842637313766292,1.2445541602925227,-0.05067356370985574,-1.39063060988553,-0.36358759820384245,-0.8632235449032502,0.6151571784673304,-2.4176176470586945,-0.3190006485143003,6.228586329146921,-13.603798336823719,-2.90203962229932,7.557257778436935,0.43894229227803794,4.540549758170211,-0.43863177866267505,-3.053528842092987,-0.04302273440294858,0.8587882066945939,-1.4151823902873248,-1.5931056327411715,0.5766163475076461,-0.988132530465389,-1.1841508440739774,-1.1248763766562062,3.009157938733011,2.841498753609172,0.2893134857107525,8.880677623345704,7.174669155365347,-0.7731898590087176,2.2657341449063977,-0.4914997144259868,0.29664809879812765,-0.5685574080161648,0.19295674245457917,2.0844188220987627,-0.3072318720760122,-0.10463242282446274,2.5358868147278555,3.1384993785087953,8.184086998700362,-3.088137582579406,0.016819090582250347,-2.356676941853689,-1.4910177685028436,-6.617374644704142,-3.011602264426904,1.6152663342405191,0.18130085587958314,-8.872178969739961,-2.0588961240301797,-5.673281271117334,-1.1804705277191248,1.4552891922873201,3.5092879711045195,-1.0544440332494796,-3.109196594356704,-0.2727367677497459,-2.655845470644472,-5.082674334004301,4.512921223505382,-3.3853577516117808,3.100288416154608,-5.754117600592115,-0.21511621475712786,-0.09948089567628901,-2.8433001478822533,2.4172490162737947,-3.23461248781107,-2.662524535284224,-0.17867661413665425,0.051266352023206944,0.7825910390272846,0.8632737986458439,0.6260721889457146,3.031478078632453,1.6747061454192151,-0.5731601207809983,3.051791694812009,-0.1447588708035709,2.6477083554489345,-1.4407536222420811,0.6422603659044593,0.09239006558158867,-4.0442116280039375,-3.7861070310481293,1.4469595332386738,2.3085232014577826,1.2840967312671923,0.10886816795560804,-1.4405477447927721,2.1039246401855642,1.6278879715948817,-1.0715769097103796,2.541818438047657,3.7375617835147192,-6.34651194114094,-2.862540715906836,-3.9399334413816853,-2.605564496222747,-11.293034617099613,-2.163567867335835,4.872820294764565,-0.284148710719558,1.7516307989118425,0.3215305922600137,-0.5876312151795595,0.8895484977448794,0.3195216497080289,-0.8140383790430819,-0.577929328518097,-1.7485070005558372,-4.47763517068959,-3.7570878099245544,2.7311991576519996,-3.8599462511319595,0.6664868996834366,0.8874384910443687,2.8474645423084337,-4.576686005236126,-1.174177330962202,-1.0026873287821478,-2.6637762508756064,-2.309349599947522,-0.8933611322397975,0.9764740446387425,1.2489737504660132,0.8836249517667272,-1.1881646513805129,1.8926343010400524,2.2639922715336183,-4.398595979648938,-2.2478276442534706,1.337253988961097,-1.287646587132107,1.982296406497703,-6.397775461233144,-8.363833568179647,5.694006536906094,-3.291802556783595,-1.150722570581569,-1.0653618820523967,1.6259463450844496,0.4208273720560798,-2.5853769881525945,-0.5012815698875078,5.7765964448109,0.6276731177646911,2.738895695537645,-13.599775518285888,0.3702416135833242,0.9824702379446288,2.7863591371102987,0.32617188043750295,0.5916549078646357,-8.447756736489902,1.3777772155705739,-2.2576940190052808,0.011070144826433028,-0.6590392982608673,0.8350306138039215,1.6790971861820319,-2.426492374571596,-0.9350663982216322,0.10878621767275194,6.017173560402672,1.331739036075995,2.5700784302874764,-1.7115642784948524,2.173200112226971,6.700100362571771,-11.901066227881724,2.0047161685064547,-8.88160716923532,-0.3531331958776558,-1.146262637193985,-0.7177876733235642,0.8524563893404526,-1.5110901882894332,-0.9131021395335686,-0.13786320659972984,0.3394849193900985,4.646900542601046,0.7396108637416886,2.48009207972282,-4.190566789897233,-2.6504800092747662,8.512662981095358,-2.4916254691112028,-0.03512443476139348,8.811547534789353,0.5213502170510024,0.6067879900601397,-6.451309179955064,0.30654079866665607,-0.6006134839664804,-1.3617051307830403],[-0.299958387362065,1.4199244615525701,-0.18052531861218912,-0.5784087992291559,